{"learner":{"attributes":{"scikit_learn":"{\"_estimator_type\": \"classifier\"}"},"feature_names":[],"feature_types":[],"gradient_booster":{"model":{"gbtree_model_param":{"num_parallel_tree":"1","num_trees":"200"},"iteration_indptr":[0,1,2,3,4,5,6,7,8,9,10,11,12,13,14,15,16,17,18,19,20,21,22,23,24,25,26,27,28,29,30,31,32,33,34,35,36,37,38,39,40,41,42,43,44,45,46,47,48,49,50,51,52,53,54,55,56,57,58,59,60,61,62,63,64,65,66,67,68,69,70,71,72,73,74,75,76,77,78,79,80,81,82,83,84,85,86,87,88,89,90,91,92,93,94,95,96,97,98,99,100,101,102,103,104,105,106,107,108,109,110,111,112,113,114,115,116,117,118,119,120,121,122,123,124,125,126,127,128,129,130,131,132,133,134,135,136,137,138,139,140,141,142,143,144,145,146,147,148,149,150,151,152,153,154,155,156,157,158,159,160,161,162,163,164,165,166,167,168,169,170,171,172,173,174,175,176,177,178,179,180,181,182,183,184,185,186,187,188,189,190,191,192,193,194,195,196,197,198,199,200],"tree_info":[0,0,0,0,0,0,0,0,0,0,0,0,0,0,0,0,0,0,0,0,0,0,0,0,0,0,0,0,0,0,0,0,0,0,0,0,0,0,0,0,0,0,0,0,0,0,0,0,0,0,0,0,0,0,0,0,0,0,0,0,0,0,0,0,0,0,0,0,0,0,0,0,0,0,0,0,0,0,0,0,0,0,0,0,0,0,0,0,0,0,0,0,0,0,0,0,0,0,0,0,0,0,0,0,0,0,0,0,0,0,0,0,0,0,0,0,0,0,0,0,0,0,0,0,0,0,0,0,0,0,0,0,0,0,0,0,0,0,0,0,0,0,0,0,0,0,0,0,0,0,0,0,0,0,0,0,0,0,0,0,0,0,0,0,0,0,0,0,0,0,0,0,0,0,0,0,0,0,0,0,0,0,0,0,0,0,0,0,0,0,0,0,0,0,0,0,0,0,0,0],"trees":[{"base_weights":[5.649039E-1,5.9305614E-1,-3.01839E0,6.1155045E-1,-1.700082E-1,-1.7074767E0,-4.330685E0,8.6308485E-1,5.930133E-1,3.705246E-2,-5.8440834E-1,-4.4607553E0,-1.3852636E0,-4.724146E0,-4.6418443E-1,1.0473222E0,4.5185107E-1,6.0588217E-1,4.5750856E-1,-4.8964337E-2,5.2075285E-1,-1.9901161E0,-4.113597E-1,-5.067892E0,-2.213016E0,-1.7621231E0,-6.752337E-2,-5.893651E0,-4.423574E0,1.8004107E-1,-2.4614635E0,1.1248277E0,9.120809E-1,8.22313E-1,3.9713988E-1,6.4116484E-1,5.924942E-1,4.9798304E-1,3.3585864E-1,9.685499E-2,-1.929684E-1,7.162168E-1,4.3567517E-1,-2.4590073E0,-8.6078405E-1,-5.819098E-1,4.4348666E-1,-3.4036365E0,-5.400249E0,-3.159248E-1,-1.6206053E0,-3.4579318E0,-1.5334336E0,-4.0436783E-1,6.2248E-1,-6.0805106E0,-5.454159E0,-4.134811E0,-5.340082E0,-3.306486E-1,6.7095506E-1,-2.2906284E0,-2.9477108E-1,1.1608921E0,1.0640013E0,1.0060477E0,7.678252E-1,6.6091996E-1,1.1106305E0,1.9215776E-1,4.6964088E-1,7.497799E-1,6.297259E-1,6.072421E-1,5.376893E-1,6.082032E-1,4.7988808E-1,3.746605E-1,2.2404532E-1,-1.04256466E-1,1.6572848E-1,-5.4766065E-1,-1.1795277E-1,6.150605E-1,7.8508174E-1,3.5777682E-1,5.766941E-1,-5.4567494E0,-2.1785772E0,-5.7634807E-1,-1.9723308E0,-1.038751E0,-4.8325217E-1,7.640979E-1,3.3620125E-1,-2.8482595E-1,-4.1581184E-1,-6.216562E-1,-5.159696E0,-2.2287539E-1,-9.5963985E-2,-5.7409124E0,-1.7357394E0,-3.8811603E-1,-1.84872E0,-5.2120864E-1,-4.159016E-2,1.0414399E-1,4.9015144E-1,-5.619199E-1,-6.1552596E0,-5.8304656E-1,-5.1050076E0,-4.7318954E0,-3.9573045E0,-5.1090755E0,-6.091381E-1,-5.857459E-1,1.0832094E-1,9.6682435E-1,4.0581906E-1,-2.503433E-1,-1.9791791E-1,1.1028045E0,1.180783E0,1.1178986E0,9.785802E-1,1.0309356E0,7.157622E-1,6.552858E-1,8.6478746E-1,9.113251E-1,2.6433873E-1,9.236475E-1,1.1260587E0,8.2662426E-2,3.8469496E-1,3.850899E-1,6.293978E-1,8.6448383E-1,5.4515976E-1,6.020177E-1,6.4810306E-1,6.3736427E-1,5.2657497E-1,3.3635622E-1,6.479939E-1,4.7185093E-1,6.6974586E-1,4.2290953E-1,5.228323E-1,4.4957203E-1,3.3146092E-1,-4.327149E-3,2.660856E-1,1.6740644E-1,-7.158626E-1,6.105775E-2,3.1104502E-1,-7.2886133E-1,-2.47132E-1,-3.6968285E-1,-5.8729574E-2,4.8406458E-1,6.685285E-1,7.581891E-1,8.822709E-2,2.6790148E-1,4.536703E-1,5.342409E-1,6.532395E-1,-4.8784146E-1,-6.0684794E-1,-1.6548803E0,-2.8564131E0,-3.8150796E-1,-1.1132481E0,-4.294224E-2,-3.6510405E-1,-5.23194E0,-2.1303964E-1,-4.131019E-1,-2.484658E0,7.011419E-1,1.1112455E-1,1.7789979E-2,3.8340482E-1,-5.396903E0,-3.8537905E-1,-5.2468985E-1,-6.078805E-1,-1.4894162E0,-3.2164344E-1,-3.1399795E-1,-1.5205571E-1,-3.8158603E0,-1.6199952E0,-7.2572947E-1,-3.4919685E-1,-3.8415648E-2,9.955771E-2,6.2348247E-2,2.9592806E-2,-6.235153E-1,-5.568305E-1,-4.800677E0,-6.021017E-1,-4.292032E0,-5.3015256E0,-3.5544198E0,-4.4581895E0,-3.6483355E0,-5.5440845E0,-3.6681047E-1,-1.1662E-1,-1.5532397E-2,3.6364775E-2,8.09545E-2,1.0848103E-1,3.3908153E-1,5.5455547E-2,1.1786544E-1,9.651611E-2,1.1842694E-1,1.06146336E-1,1.137613E-1,8.5860685E-2,7.2947316E-2,1.1104649E-1,1.07731044E-1,9.3680374E-2,8.473057E-2,5.916105E-2,8.788607E-2,4.8561245E-2,9.444609E-2,7.820236E-2,1.1614019E-1,8.8525556E-2,1.0862857E-1,1.7840525E-2,1.1607736E-1,6.080837E-2,1.1486007E-1,9.909346E-2,-4.283713E-3,4.3520126E-2,9.810129E-2,1.4923503E-2,2.7817508E-2,5.228901E-2,5.7509966E-2,7.243195E-2,5.2747626E-2,9.64685E-2,6.188823E-2,4.1744124E-2,5.748848E-2,6.851577E-2,6.809166E-2,5.3889938E-2,6.5418E-2,5.777638E-2,4.2830866E-2,5.7155486E-2,2.303314E-2,6.287251E-2,6.1510004E-2,7.055681E-2,6.415262E-2,2.4345173E-2,5.2458864E-2,6.756078E-2,2.9798342E-2,4.4178884E-2,5.6555863E-2,4.5237128E-2,3.5980143E-2,5.5659838E-2,2.5134755E-2,3.8721766E-2,1.9287027E-2,-4.2218067E-2,2.4665853E-2,4.403202E-2,2.5110653E-2,-5.54367E-2,-1.788414E-1,1.7263377E-2,1.8871224E-2,-1.23729825E-1,1.6977455E-2,4.0974695E-2,-4.616872E-2,-1.04354694E-1,-3.8442038E-2,3.1405028E-2,4.9707512E-3,-2.6406962E-1,-2.2102833E-2,1.4528125E-2,2.8831506E-2,5.565044E-2,4.4774182E-2,7.0337735E-2,7.124853E-2,8.087896E-2,1.1703464E-2,3.3074647E-2,3.3447273E-2,4.9412664E-2,5.113541E-2,8.40472E-2,7.508822E-2,6.259865E-2,-1.9599138E-1,-1.079481E-1,-5.1215357E-1,-2.2434977E-1,-2.4311054E-2,-8.218726E-2,-4.8819046E-2,-1.54626E-1,-3.8583562E-1,-5.7837456E-1,-7.0392E-3,-1.70545E-1,1.4350459E-2,-5.872144E-2,-4.1638097E-1,-5.1731404E-2,6.285629E-2,7.527634E-2,2.6337225E-2,-1.9043976E-2,2.665533E-2,4.8710644E-2,-4.0832266E-1,-5.543384E-1,-1.3177243E-1,-2.0206264E-1,-2.8148213E-2,-1.0794214E-1,-1.8976323E-1,-6.01851E-1,-1.5027915E-1,-5.2680194E-1,-9.129829E-2,-6.768326E-2,-6.138117E-2,-2.7389867E-2,3.3404063E-3,3.1446505E-2,-4.371356E-1,-5.0244534E-1,-3.032062E-1,-4.3982416E-1,-5.6557816E-1,-4.472137E-1,-3.1497118E-1,-3.8321456E-1,-4.2051503E-1,-5.5889124E-1,-2.676712E-1,-4.20581E-1,-5.371005E-1,-6.160986E-1,-5.4511E-2,-1.783238E-2,2.6987571E-2,4.346686E-2],"categories":[],"categories_nodes":[],"categories_segments":[],"categories_sizes":[],"default_left":[0,0,0,0,0,0,0,0,0,0,0,0,0,0,0,0,0,0,0,0,0,0,0,0,0,0,0,0,0,0,0,0,0,0,0,0,0,0,0,0,0,0,0,0,0,0,0,0,0,0,0,0,0,0,0,0,0,0,0,0,0,0,0,0,0,0,0,0,0,0,0,0,0,0,0,0,0,0,0,0,0,0,0,0,0,0,0,0,0,0,0,0,0,0,0,0,0,0,0,0,0,0,0,0,0,0,0,0,0,0,0,0,0,0,0,0,0,0,0,0,0,0,0,0,0,0,0,0,0,0,0,0,0,0,0,0,0,0,0,0,0,0,0,0,0,0,0,0,0,0,0,0,0,0,0,0,0,0,0,0,0,0,0,0,0,0,0,0,0,0,0,0,0,0,0,0,0,0,0,0,0,0,0,0,0,0,0,0,0,0,0,0,0,0,0,0,0,0,0,0,0,0,0,0,0,0,0,0,0,0,0,0,0,0,0,0,0,0,0,0,0,0,0,0,0,0,0,0,0,0,0,0,0,0,0,0,0,0,0,0,0,0,0,0,0,0,0,0,0,0,0,0,0,0,0,0,0,0,0,0,0,0,0,0,0,0,0,0,0,0,0,0,0,0,0,0,0,0,0,0,0,0,0,0,0,0,0,0,0,0,0,0,0,0,0,0,0,0,0,0,0,0,0,0,0,0,0,0,0,0,0,0,0,0,0,0,0,0,0,0,0,0,0,0,0,0,0,0,0,0,0,0,0,0,0,0,0,0,0,0,0,0,0,0,0,0,0,0,0,0,0,0,0,0,0,0,0,0,0,0,0,0,0,0,0,0,0,0,0,0,0],"id":0,"left_children":[1,3,5,7,9,11,13,15,17,19,21,23,25,27,29,31,33,35,37,39,41,43,45,47,49,51,53,55,57,59,61,63,65,67,69,71,73,75,77,79,81,83,85,87,89,91,93,95,97,-1,99,101,103,105,107,109,111,113,115,117,119,121,-1,123,125,127,129,131,133,135,137,139,141,143,145,147,149,151,153,155,157,159,161,163,165,167,169,171,173,175,177,179,181,183,185,-1,-1,-1,187,-1,-1,189,191,193,195,197,199,-1,201,-1,203,-1,205,207,209,211,-1,213,215,217,219,-1,-1,221,223,225,227,229,231,233,235,237,239,241,243,245,247,249,251,253,255,257,259,261,263,265,267,269,271,273,275,277,279,281,283,285,287,289,291,293,295,297,299,301,303,305,-1,307,309,311,313,-1,-1,315,317,319,321,-1,-1,323,325,327,329,331,-1,333,335,337,-1,-1,-1,339,-1,341,-1,343,345,347,349,-1,351,-1,-1,-1,-1,353,-1,355,357,359,361,363,365,367,-1,-1,-1,-1,-1,369,-1,-1,-1,-1,-1,-1,-1,-1,-1,-1,-1,-1,-1,-1,-1,-1,-1,-1,-1,-1,-1,-1,-1,-1,-1,-1,-1,-1,-1,-1,-1,-1,-1,-1,-1,-1,-1,-1,-1,-1,-1,-1,-1,-1,-1,-1,-1,-1,-1,-1,-1,-1,-1,-1,-1,-1,-1,-1,-1,-1,-1,-1,-1,-1,-1,-1,-1,-1,-1,-1,-1,-1,-1,-1,-1,-1,-1,-1,-1,-1,-1,-1,-1,-1,-1,-1,-1,-1,-1,-1,-1,-1,-1,-1,-1,-1,-1,-1,-1,-1,-1,-1,-1,-1,-1,-1,-1,-1,-1,-1,-1,-1,-1,-1,-1,-1,-1,-1,-1,-1,-1,-1,-1,-1,-1,-1,-1,-1,-1,-1,-1,-1,-1,-1,-1,-1,-1,-1,-1,-1,-1,-1,-1,-1,-1,-1,-1,-1,-1,-1,-1],"loss_changes":[2.717802E5,3.7724375E4,3.6121953E4,1.2168625E4,5.4277837E3,9.315939E3,1.5963531E4,1.3571609E4,4.2384375E3,1.7550322E3,5.1260435E3,1.4905605E3,4.672211E3,3.32225E3,1.2490852E3,1.2956875E3,1.1230635E3,1.0483125E3,1.0378984E3,7.520521E2,1.0559656E2,1.2210527E3,2.7363928E3,4.6043164E2,1.2706262E2,2.8320117E3,4.868076E2,1.2653125E2,1.9844531E3,1.8441032E2,1.2913452E1,1.7127344E2,6.1021484E2,3.3109912E2,7.1764746E2,7.5821875E2,1.300375E3,3.1521484E2,2.2828418E2,2.465041E2,4.7938226E2,1.296051E1,4.856598E1,1.35979E3,2.1360883E2,7.0468066E2,1.07131165E2,4.9669556E1,1.0927734E2,0E0,5.697757E1,3.4050986E3,2.3278867E3,5.9629562E1,3.7582977E1,1.215625E1,4.773047E1,5.9278906E2,2.8353906E2,4.0461166E1,2.901883E1,6.9537964E0,0E0,5.5726562E1,1.3371875E2,1.9643164E2,1.9349023E2,4.540266E2,6.338623E0,2.660294E2,4.816548E2,1.3649707E3,2.8090625E2,3.080875E3,7.5780625E3,1.8685352E2,3.3228906E2,1.2630322E2,1.3021649E2,7.544791E2,2.01611E2,1.7110645E2,2.2173647E2,5.183502E0,2.3225708E0,2.4549896E1,4.779602E0,1.9541992E1,5.255283E2,5.6298996E1,3.558158E2,9.616996E3,1.8057959E3,1.631137E1,3.517926E1,0E0,0E0,0E0,1.5325879E2,0E0,0E0,3.0375977E1,1.7631091E2,1.1646495E2,2.26883E3,3.7191193E1,1.6667633E1,0E0,1.3386726E1,0E0,1.9496094E1,0E0,5.862451E1,3.0725586E2,8.828828E2,8.6483984E2,0E0,2.8587753E1,9.038884E0,2.3964996E0,1.7918129E0,0E0,0E0,1.3045996E2,1.4027344E1,9.076172E1,3.7162402E2,1.08708984E2,3.474756E1,3.1195898E2,6.22334E1,1.7249268E1,1.2495769E2,1.4299042E1,6.045166E0,3.5601877E2,6.422189E2,3.4359814E2,6.3212402E1,1.2582891E3,1.9653174E2,4.9659375E2,1.1898125E3,9.249375E2,1.5236484E3,3.743996E3,4.1707812E2,2.6878857E2,1.2720703E1,1.3762305E2,2.3301367E2,1.3708545E2,1.10622314E2,1.7390923E2,3.866278E1,1.90113E2,1.3312112E3,1.2775896E3,7.731958E1,1.644552E2,9.139056E1,2.6982341E3,3.98785E2,3.1226425E0,3.9610138E0,1.5134888E0,0E0,1.3994698E1,6.5064087E0,6.723755E0,1.0162811E0,0E0,0E0,1.4620776E2,8.9048926E2,2.4140568E1,3.818219E1,0E0,0E0,3.2405273E2,4.9419153E2,1.205147E3,1.4368267E3,2.0170593E0,0E0,1.5559832E1,2.4574982E1,6.838672E1,0E0,0E0,0E0,3.6334534E1,0E0,3.2273376E1,0E0,2.2107622E3,1.9295332E3,3.8256226E0,1.1389618E1,0E0,3.4635127E0,0E0,0E0,0E0,0E0,1.152832E0,0E0,8.6822266E1,1.420752E2,2.6591406E2,5.4341406E2,1.6344629E2,8.130078E1,5.523512E0,0E0,0E0,0E0,0E0,0E0,8.1048965E-1,0E0,0E0,0E0,0E0,0E0,0E0,0E0,0E0,0E0,0E0,0E0,0E0,0E0,0E0,0E0,0E0,0E0,0E0,0E0,0E0,0E0,0E0,0E0,0E0,0E0,0E0,0E0,0E0,0E0,0E0,0E0,0E0,0E0,0E0,0E0,0E0,0E0,0E0,0E0,0E0,0E0,0E0,0E0,0E0,0E0,0E0,0E0,0E0,0E0,0E0,0E0,0E0,0E0,0E0,0E0,0E0,0E0,0E0,0E0,0E0,0E0,0E0,0E0,0E0,0E0,0E0,0E0,0E0,0E0,0E0,0E0,0E0,0E0,0E0,0E0,0E0,0E0,0E0,0E0,0E0,0E0,0E0,0E0,0E0,0E0,0E0,0E0,0E0,0E0,0E0,0E0,0E0,0E0,0E0,0E0,0E0,0E0,0E0,0E0,0E0,0E0,0E0,0E0,0E0,0E0,0E0,0E0,0E0,0E0,0E0,0E0,0E0,0E0,0E0,0E0,0E0,0E0,0E0,0E0,0E0,0E0,0E0,0E0,0E0,0E0,0E0,0E0,0E0,0E0,0E0,0E0,0E0,0E0,0E0,0E0,0E0,0E0,0E0,0E0,0E0,0E0,0E0,0E0,0E0,0E0,0E0,0E0,0E0,0E0,0E0,0E0],"parents":[2147483647,0,0,1,1,2,2,3,3,4,4,5,5,6,6,7,7,8,8,9,9,10,10,11,11,12,12,13,13,14,14,15,15,16,16,17,17,18,18,19,19,20,20,21,21,22,22,23,23,24,24,25,25,26,26,27,27,28,28,29,29,30,30,31,31,32,32,33,33,34,34,35,35,36,36,37,37,38,38,39,39,40,40,41,41,42,42,43,43,44,44,45,45,46,46,47,47,48,48,50,50,51,51,52,52,53,53,54,54,55,55,56,56,57,57,58,58,59,59,60,60,61,61,63,63,64,64,65,65,66,66,67,67,68,68,69,69,70,70,71,71,72,72,73,73,74,74,75,75,76,76,77,77,78,78,79,79,80,80,81,81,82,82,83,83,84,84,85,85,86,86,87,87,88,88,89,89,90,90,91,91,92,92,93,93,94,94,98,98,101,101,102,102,103,103,104,104,105,105,106,106,108,108,110,110,112,112,113,113,114,114,115,115,117,117,118,118,119,119,120,120,123,123,124,124,125,125,126,126,127,127,128,128,129,129,130,130,131,131,132,132,133,133,134,134,135,135,136,136,137,137,138,138,139,139,140,140,141,141,142,142,143,143,144,144,145,145,146,146,147,147,148,148,149,149,150,150,151,151,152,152,153,153,154,154,155,155,156,156,157,157,158,158,159,159,160,160,161,161,162,162,163,163,164,164,165,165,167,167,168,168,169,169,170,170,173,173,174,174,175,175,176,176,179,179,180,180,181,181,182,182,183,183,185,185,186,186,187,187,191,191,193,193,195,195,196,196,197,197,198,198,200,200,205,205,207,207,208,208,209,209,210,210,211,211,212,212,213,213,219,219],"right_children":[2,4,6,8,10,12,14,16,18,20,22,24,26,28,30,32,34,36,38,40,42,44,46,48,50,52,54,56,58,60,62,64,66,68,70,72,74,76,78,80,82,84,86,88,90,92,94,96,98,-1,100,102,104,106,108,110,112,114,116,118,120,122,-1,124,126,128,130,132,134,136,138,140,142,144,146,148,150,152,154,156,158,160,162,164,166,168,170,172,174,176,178,180,182,184,186,-1,-1,-1,188,-1,-1,190,192,194,196,198,200,-1,202,-1,204,-1,206,208,210,212,-1,214,216,218,220,-1,-1,222,224,226,228,230,232,234,236,238,240,242,244,246,248,250,252,254,256,258,260,262,264,266,268,270,272,274,276,278,280,282,284,286,288,290,292,294,296,298,300,302,304,306,-1,308,310,312,314,-1,-1,316,318,320,322,-1,-1,324,326,328,330,332,-1,334,336,338,-1,-1,-1,340,-1,342,-1,344,346,348,350,-1,352,-1,-1,-1,-1,354,-1,356,358,360,362,364,366,368,-1,-1,-1,-1,-1,370,-1,-1,-1,-1,-1,-1,-1,-1,-1,-1,-1,-1,-1,-1,-1,-1,-1,-1,-1,-1,-1,-1,-1,-1,-1,-1,-1,-1,-1,-1,-1,-1,-1,-1,-1,-1,-1,-1,-1,-1,-1,-1,-1,-1,-1,-1,-1,-1,-1,-1,-1,-1,-1,-1,-1,-1,-1,-1,-1,-1,-1,-1,-1,-1,-1,-1,-1,-1,-1,-1,-1,-1,-1,-1,-1,-1,-1,-1,-1,-1,-1,-1,-1,-1,-1,-1,-1,-1,-1,-1,-1,-1,-1,-1,-1,-1,-1,-1,-1,-1,-1,-1,-1,-1,-1,-1,-1,-1,-1,-1,-1,-1,-1,-1,-1,-1,-1,-1,-1,-1,-1,-1,-1,-1,-1,-1,-1,-1,-1,-1,-1,-1,-1,-1,-1,-1,-1,-1,-1,-1,-1,-1,-1,-1,-1,-1,-1,-1,-1,-1,-1],"split_conditions":[-1.1780816E-4,-1.3737562E-4,-1.0963329E-4,-3.7594663E-4,-1.2663999E-4,-7.5115824E-1,6.510309E-3,4.304255E-3,-1.6861872E-4,8.240806E-3,-7.9787236E-1,1.2791873E-3,6.1008018E-3,-1.789108E-1,-1.7012168E-4,-3.8522275E-4,-4.1087216E-4,-3.0339966E-4,-1.4696551E-4,-1.3268048E-4,-3.4575777E-3,1.3848665E-3,8.597474E-3,-7.848855E-3,1.6094348E-3,-5.9832046E-3,1.1057264E0,-5.4094493E-1,1.5611887E0,1.0006196E0,1.0137365E-1,-3.930521E-4,-2.9484925E-4,-3.2480785E-3,-3.2718602E-4,2.4058612E-4,2.4797738E-4,-6.7048124E-3,-1.608826E-4,-6.2504574E-3,-7.6283675E-1,2.455752E-4,2.4890128E-4,-6.4022024E-3,-3.5760288E-5,-5.9832046E-3,-3.1898844E-3,-9.8980774E-5,-6.250898E-3,-3.159248E-1,-1.0431212E0,5.1893187E-3,-3.9813253E-3,6.26907E-1,-3.4226612E-3,-7.980954E-3,-1.4148054E-4,-6.2504574E-3,-2.7267548E-4,2.4890128E-4,-2.8523582E-3,-1.9058934E-1,-2.9477108E-1,-4.9690967E-3,4.014554E-3,3.8154887E-3,-4.916257E-3,-4.180703E-4,-3.1433292E-3,-2.3518882E-3,2.4890574E-4,3.1814133E-3,-3.4665118E-4,-2.1997058E-4,-2.5031596E-4,4.0664766E-3,8.487911E-4,-3.1433292E-3,-7.571447E-3,4.2240527E-3,4.2240527E-3,1.0810387E-3,-6.7524337E-3,-3.1979478E-4,-1.298539E-4,8.874882E-3,1.1174048E0,-1.5219405E0,6.679847E-3,-9.613716E-1,1.6094348E-3,4.700552E-3,4.568453E-3,-2.8006674E-4,6.633809E-2,-2.8482595E-1,-4.1581184E-1,-6.216562E-1,6.319021E-4,-2.2287539E-1,-9.5963985E-2,-2.541973E-4,1.3626537E0,-1.6273042E-4,-6.9917383E-4,2.4705348E-4,2.4520565E-4,1.0414399E-1,-2.67132E-4,-5.619199E-1,1.3848665E-3,-5.8304656E-1,-1.2115457E-4,3.2696684E-3,-2.3139063E-3,1.7830806E0,-6.091381E-1,-1.96915E-4,6.26907E-1,1.6312598E0,1.280904E0,-2.503433E-1,-1.9791791E-1,4.398635E-3,3.934378E-3,3.8154887E-3,-4.916257E-3,-3.2626212E-4,-3.3827292E-4,4.014554E-3,-3.8038017E-4,4.9383305E-3,4.8062312E-3,-4.180703E-4,-2.541973E-4,-3.8193743E-4,-3.955172E-4,-3.8703455E-4,-3.8522275E-4,-3.425983E-4,-3.1505286E-4,4.7666016E-3,5.4270965E-3,2.4520565E-4,2.4243393E-4,4.7666016E-3,3.3278626E-3,-1.5782843E-4,-7.3333094E-3,-5.1011955E-3,6.3539594E-3,5.1364787E-3,2.455752E-4,5.7603787E-3,7.989818E-3,-7.13552E-3,-7.571447E-3,4.6470956E-4,2.455752E-4,-1.298539E-4,6.3539594E-3,4.2240527E-3,4.561579E-3,-1.3514704E-4,8.505004E-3,2.4890574E-4,8.822709E-2,2.4317304E-4,2.4317304E-4,2.5536865E-4,-1.3514704E-4,-4.8784146E-1,-6.0684794E-1,-6.8316925E-3,-7.307249E-3,-6.0181213E-3,-1.248502E-4,-4.294224E-2,-3.6510405E-1,-2.5974077E-4,1.5611887E0,-3.6903543E-3,7.2764833E-3,2.455752E-4,1.1112455E-1,-1.2288413E-4,2.4705348E-4,-5.936649E-3,-3.8537905E-1,-5.2468985E-1,-6.078805E-1,1.1524404E0,-3.2164344E-1,1.8414731E0,-1.5205571E-1,-2.893058E-4,4.2382055E-3,-2.8401747E-1,6.470679E-3,-3.8415648E-2,2.5167302E-4,6.2348247E-2,2.9592806E-2,-6.235153E-1,-5.568305E-1,-1.3224146E-4,-6.021017E-1,-2.0338237E-4,-6.475026E-3,-4.190824E-3,1.0940478E0,-4.13263E-3,-2.8745798E-4,7.203352E-1,-1.1662E-1,-1.5532397E-2,3.6364775E-2,8.09545E-2,1.0848103E-1,-2.5497484E-3,5.5455547E-2,1.1786544E-1,9.651611E-2,1.1842694E-1,1.06146336E-1,1.137613E-1,8.5860685E-2,7.2947316E-2,1.1104649E-1,1.07731044E-1,9.3680374E-2,8.473057E-2,5.916105E-2,8.788607E-2,4.8561245E-2,9.444609E-2,7.820236E-2,1.1614019E-1,8.8525556E-2,1.0862857E-1,1.7840525E-2,1.1607736E-1,6.080837E-2,1.1486007E-1,9.909346E-2,-4.283713E-3,4.3520126E-2,9.810129E-2,1.4923503E-2,2.7817508E-2,5.228901E-2,5.7509966E-2,7.243195E-2,5.2747626E-2,9.64685E-2,6.188823E-2,4.1744124E-2,5.748848E-2,6.851577E-2,6.809166E-2,5.3889938E-2,6.5418E-2,5.777638E-2,4.2830866E-2,5.7155486E-2,2.303314E-2,6.287251E-2,6.1510004E-2,7.055681E-2,6.415262E-2,2.4345173E-2,5.2458864E-2,6.756078E-2,2.9798342E-2,4.4178884E-2,5.6555863E-2,4.5237128E-2,3.5980143E-2,5.5659838E-2,2.5134755E-2,3.8721766E-2,1.9287027E-2,-4.2218067E-2,2.4665853E-2,4.403202E-2,2.5110653E-2,-5.54367E-2,-1.788414E-1,1.7263377E-2,1.8871224E-2,-1.23729825E-1,1.6977455E-2,4.0974695E-2,-4.616872E-2,-1.04354694E-1,-3.8442038E-2,3.1405028E-2,4.9707512E-3,-2.6406962E-1,-2.2102833E-2,1.4528125E-2,2.8831506E-2,5.565044E-2,4.4774182E-2,7.0337735E-2,7.124853E-2,8.087896E-2,1.1703464E-2,3.3074647E-2,3.3447273E-2,4.9412664E-2,5.113541E-2,8.40472E-2,7.508822E-2,6.259865E-2,-1.9599138E-1,-1.079481E-1,-5.1215357E-1,-2.2434977E-1,-2.4311054E-2,-8.218726E-2,-4.8819046E-2,-1.54626E-1,-3.8583562E-1,-5.7837456E-1,-7.0392E-3,-1.70545E-1,1.4350459E-2,-5.872144E-2,-4.1638097E-1,-5.1731404E-2,6.285629E-2,7.527634E-2,2.6337225E-2,-1.9043976E-2,2.665533E-2,4.8710644E-2,-4.0832266E-1,-5.543384E-1,-1.3177243E-1,-2.0206264E-1,-2.8148213E-2,-1.0794214E-1,-1.8976323E-1,-6.01851E-1,-1.5027915E-1,-5.2680194E-1,-9.129829E-2,-6.768326E-2,-6.138117E-2,-2.7389867E-2,3.3404063E-3,3.1446505E-2,-4.371356E-1,-5.0244534E-1,-3.032062E-1,-4.3982416E-1,-5.6557816E-1,-4.472137E-1,-3.1497118E-1,-3.8321456E-1,-4.2051503E-1,-5.5889124E-1,-2.676712E-1,-4.20581E-1,-5.371005E-1,-6.160986E-1,-5.4511E-2,-1.783238E-2,2.6987571E-2,4.346686E-2],"split_indices":[7,7,7,7,7,5,1,1,7,1,5,1,1,5,6,7,7,7,7,7,2,1,1,1,1,2,5,5,5,5,5,7,6,2,6,3,3,2,6,1,5,3,3,2,2,2,2,6,2,0,5,1,2,5,2,1,6,1,6,3,2,5,0,1,2,1,1,7,2,2,3,1,7,7,7,1,2,2,1,2,2,1,1,6,7,1,5,5,2,5,1,1,1,6,5,0,0,0,1,0,0,6,5,6,2,3,3,0,6,0,1,0,6,2,1,5,0,6,5,5,5,0,0,2,1,1,1,6,6,2,7,1,1,7,6,7,7,7,7,7,7,1,1,3,3,1,2,7,2,1,2,1,3,2,1,1,1,2,3,7,2,2,2,7,1,3,0,3,3,3,7,0,0,1,1,2,6,0,0,6,5,2,1,3,0,7,3,2,0,0,0,5,0,5,0,6,1,5,1,0,3,0,0,0,0,6,0,6,1,2,5,2,6,5,0,0,0,0,0,2,0,0,0,0,0,0,0,0,0,0,0,0,0,0,0,0,0,0,0,0,0,0,0,0,0,0,0,0,0,0,0,0,0,0,0,0,0,0,0,0,0,0,0,0,0,0,0,0,0,0,0,0,0,0,0,0,0,0,0,0,0,0,0,0,0,0,0,0,0,0,0,0,0,0,0,0,0,0,0,0,0,0,0,0,0,0,0,0,0,0,0,0,0,0,0,0,0,0,0,0,0,0,0,0,0,0,0,0,0,0,0,0,0,0,0,0,0,0,0,0,0,0,0,0,0,0,0,0,0,0,0,0,0,0,0,0,0,0,0,0,0,0,0,0,0,0,0,0,0,0,0],"split_type":[0,0,0,0,0,0,0,0,0,0,0,0,0,0,0,0,0,0,0,0,0,0,0,0,0,0,0,0,0,0,0,0,0,0,0,0,0,0,0,0,0,0,0,0,0,0,0,0,0,0,0,0,0,0,0,0,0,0,0,0,0,0,0,0,0,0,0,0,0,0,0,0,0,0,0,0,0,0,0,0,0,0,0,0,0,0,0,0,0,0,0,0,0,0,0,0,0,0,0,0,0,0,0,0,0,0,0,0,0,0,0,0,0,0,0,0,0,0,0,0,0,0,0,0,0,0,0,0,0,0,0,0,0,0,0,0,0,0,0,0,0,0,0,0,0,0,0,0,0,0,0,0,0,0,0,0,0,0,0,0,0,0,0,0,0,0,0,0,0,0,0,0,0,0,0,0,0,0,0,0,0,0,0,0,0,0,0,0,0,0,0,0,0,0,0,0,0,0,0,0,0,0,0,0,0,0,0,0,0,0,0,0,0,0,0,0,0,0,0,0,0,0,0,0,0,0,0,0,0,0,0,0,0,0,0,0,0,0,0,0,0,0,0,0,0,0,0,0,0,0,0,0,0,0,0,0,0,0,0,0,0,0,0,0,0,0,0,0,0,0,0,0,0,0,0,0,0,0,0,0,0,0,0,0,0,0,0,0,0,0,0,0,0,0,0,0,0,0,0,0,0,0,0,0,0,0,0,0,0,0,0,0,0,0,0,0,0,0,0,0,0,0,0,0,0,0,0,0,0,0,0,0,0,0,0,0,0,0,0,0,0,0,0,0,0,0,0,0,0,0,0,0,0,0,0,0,0,0,0,0,0,0,0,0,0,0,0,0,0,0,0],"sum_hessian":[2.694135E6,2.6731342E6,2.1000703E4,2.609879E6,6.3255227E4,1.0507034E4,1.049367E4,1.7913369E5,2.4307455E6,4.218022E4,2.1075008E4,1.0994552E3,9.407579E3,9.524246E3,9.6942365E2,1.2370909E5,5.5424598E4,2.219917E6,2.1082853E5,3.5812547E4,6.367673E3,2.308896E3,1.8766111E4,8.6464996E2,2.3480525E2,7.315179E3,2.0923994E3,1.9435247E3,7.5807217E3,7.336829E2,2.3574074E2,7.863611E4,4.507299E4,7.1302217E3,4.8294375E4,6.106249E5,1.609292E6,1.5819272E5,5.26358E4,1.7794283E4,1.8018264E4,1.9288242E3,4.438848E3,1.6306737E3,6.7822235E2,1.5645086E4,3.1210256E3,1.458011E2,7.188489E2,8.873688E1,1.4606837E2,8.6759E2,6.4475894E3,1.4062924E3,6.861071E2,1.3547074E3,5.8881726E2,5.7686987E3,1.8120231E3,3.5975854E2,3.7392435E2,1.7867651E2,5.7064224E1,4.9355074E4,2.9281031E4,2.729033E4,1.7782656E4,4.573424E3,2.556798E3,1.2619346E4,3.567503E4,5.817531E4,5.5244956E5,1.2680511E6,3.4124088E5,2.2303693E4,1.3588903E5,3.9073895E4,1.3561908E4,4.539212E3,1.325507E4,3.1444126E3,1.4873851E4,7.852679E2,1.1435564E3,2.8616306E3,1.5772178E3,1.3791635E2,1.4927573E3,5.4124146E2,1.3698087E2,2.7769028E3,1.2868184E4,7.809914E2,2.3400342E3,8.673228E1,5.9068825E1,1.5796233E2,5.6088654E2,7.4838326E1,7.123005E1,3.720534E2,4.9553665E2,1.3922601E3,5.055329E3,1.0633724E3,3.4291992E2,1.6304065E2,5.2306647E2,1.9952432E2,1.1551831E3,2.758327E2,3.129846E2,1.3160854E3,4.4526133E3,1.3918593E3,4.2016376E2,2.2732143E2,1.3243712E2,1.7546915E2,1.9845522E2,1.01967224E2,7.670929E1,1.2603978E4,3.6751098E4,1.794583E4,1.13352E4,2.5132982E4,2.1573484E3,8.233819E3,9.548836E3,2.8025618E3,1.7708619E3,1.9952432E2,2.3572737E3,8.0453877E3,4.5739585E3,2.3330715E4,1.2344315E4,3.7276168E4,2.0899139E4,2.2031055E5,3.3213906E5,9.232798E5,3.4477134E5,1.2078412E5,2.2045675E5,6.9388496E3,1.5364844E4,5.840624E4,7.74828E4,1.4287974E4,2.478592E4,2.1085698E3,1.1453338E4,3.1436106E3,1.3956012E3,7.7059424E3,5.5491284E3,1.9607642E3,1.1836483E3,2.8318289E3,1.2042021E4,2.3052878E2,5.5473914E2,9.026037E2,2.4095268E2,1.4791261E3,1.3825045E3,1.01967224E3,5.5754553E2,7.550653E1,6.240982E1,8.4406946E2,6.486879E2,3.9838046E2,1.4286102E2,7.203189E1,6.4948975E1,4.5597925E2,2.3209236E3,1.2433586E4,4.3459686E2,6.636556E2,1.1733581E2,3.022934E2,2.0377407E3,4.7201602E2,8.8870514E1,1.5782869E2,2.1422472E2,4.2657846E2,6.8958176E1,1.3079335E3,8.432676E1,5.2493744E2,4.5303916E3,4.8431088E2,5.790616E2,9.956171E1,2.433582E2,3.0884174E2,2.1422472E2,1.0083128E3,1.4687022E2,2.3961629E2,7.3368286E1,7.474478E2,5.6863763E2,2.472204E3,1.9804093E3,3.2153754E2,1.0703218E3,1.66248E2,6.107342E1,6.53499E1,6.708722E1,7.8580246E1,9.688891E1,1.3925275E2,5.9202465E1,8.1211616E3,4.482816E3,3.5699086E4,1.0520131E3,1.6674648E4,1.2711825E3,3.9260723E3,7.409128E3,1.6830738E4,8.302243E3,1.0446628E3,1.1126855E3,3.5508113E3,4.6830083E3,4.8599478E3,4.6888887E3,2.604641E2,2.5420977E3,1.6651527E2,1.6043467E3,1.12391136E2,8.7133194E1,2.0138192E3,3.4345447E2,5.9338774E3,2.11151E3,1.2939012E3,3.2800571E3,1.3139339E4,1.0191377E4,7.8569556E3,4.48736E3,8.544532E3,2.8731637E4,1.3248121E4,7.651016E3,1.6610848E5,5.420206E4,2.5539328E5,7.674577E4,7.2010044E5,2.0317938E5,1.0826286E5,2.365085E5,8.8641055E4,3.2143062E4,1.4030689E5,8.014984E4,3.9801963E3,2.958653E3,5.9990936E2,1.4764934E4,7.669993E3,5.0736242E4,4.822996E4,2.9252832E4,7.772762E3,6.515211E3,1.0173603E4,1.4612317E4,1.4328867E3,6.7568317E2,1.0306574E4,1.1467638E3,2.8175295E3,3.260813E2,6.318493E2,7.637519E2,7.016895E3,6.890472E2,2.2835044E3,3.265624E3,1.0617688E3,8.989954E2,9.512486E2,2.3239973E2,2.3912183E3,4.4061066E2,6.7065835E3,5.3354385E3,6.361258E1,1.669162E2,7.751112E1,4.77228E2,4.8217267E2,4.2043103E2,4.3579962E2,1.0433265E3,3.5267563E2,1.0298289E3,9.512486E2,6.8423615E1,1.1586577E2,4.4167978E2,5.500617E2,2.9400772E2,1.3657996E2,5.12108E2,3.0429797E2,9.408247E1,5.93361E1,8.352492E1,1.3297168E2,3.2300757E2,2.1193948E3,2.0152893E2,2.9626624E3,9.470924E3,2.3386978E2,2.0072708E2,2.8131192E2,3.823437E2,1.3858455E2,1.6370885E2,9.598016E2,1.0779392E3,5.0248592E1,4.2176743E2,3.2501218E2,1.015663E2,1.2559475E3,5.198591E1,2.8157922E2,2.433582E2,4.390738E3,1.3965367E2,9.662163E1,3.8768927E2,1.266906E2,4.5237097E2,1.8696217E2,5.6396027E1,8.9137794E1,1.504785E2,6.0405224E1,6.870426E2,3.9437128E2,1.7426639E2,1.01111926E3,1.4610847E3,1.6221207E3,3.5828848E2,1.1934041E2,2.0219713E2,8.4340125E2,2.269205E2,8.4460396E1,8.1787605E1,8.2990364E1,5.6262386E1],"tree_param":{"num_deleted":"0","num_feature":"8","num_nodes":"371","size_leaf_vector":"1"}},{"base_weights":[5.3029436E-1,5.3676015E-1,-8.223696E-1,-8.994466E-1,5.424803E-1,-3.830788E0,-6.59888E-1,-7.64487E-1,-3.5509899E0,5.4824674E-1,-7.175921E-1,-4.5634756E0,-2.8336866E0,-3.0530567E0,-5.310271E-1,-6.188145E-1,-2.7836685E0,-2.9361944E0,-5.019405E-1,-6.082567E-1,5.5327964E-1,-5.465165E-1,-2.6326962E0,-4.8298788E-1,-3.979128E-1,-4.2608085E0,-1.7257801E0,-3.754742E0,-2.3787374E0,-1.4423311E0,-4.26383E-1,-5.884645E-1,-3.587596E-1,-2.2534487E0,-3.785939E-1,-2.6442306E0,-4.3280444E-1,-3.4381723E-1,-2.931451E0,5.657058E-1,1.3358937E-1,-2.506952E0,-4.4071198E-1,-4.1198158E-1,-2.14803E0,-3.735511E-1,-4.6306273E-1,-2.4192329E-1,-7.5405024E-2,-3.9889386E-1,-3.1697756E-1,-1.577347E0,-4.1413966E-1,-1.0288112E0,-3.1808844E0,-1.1555473E0,-3.3484262E-1,-5.090405E-1,-1.5426902E0,-1.6264179E0,-3.5139687E0,-1.2930284E-1,-3.18556E0,-3.090197E-1,-3.4109515E-1,-2.1215591E0,-3.8211443E0,-4.6305338E-1,5.70172E-1,1.700382E-1,-2.801465E0,-3.559366E0,-2.0430086E0,-1.0018613E0,-3.453773E-1,-3.8222604E0,-1.4862618E0,-1.110522E0,-2.4725671E-1,-1.6524565E0,-3.5054463E-1,-3.7585202E-1,-2.3263405E-1,-5.3725445E-1,-3.1741228E0,-1.811431E-1,-7.4645394E-1,-3.97225E-1,-9.989034E-1,-1.205147E0,-3.7673596E-1,-9.193215E-1,-2.3805864E0,-2.622883E-1,-3.9877328E-1,-2.844159E0,-4.1723567E-1,-2.3445216E-1,-1.2246761E0,-1.6311063E0,-3.2860868E0,-3.3351126E0,-4.1026828E-1,-3.5550588E-1,-2.4486856E0,5.7564896E-1,3.146896E-1,2.1827072E-1,-2.0682495E0,-1.8797212E0,-3.354841E0,-3.9129072E-1,-2.9493132E-1,-1.720209E0,-3.4241685E-1,-2.8966646E0,-7.913357E-1,-2.6548845E-1,-7.642643E-1,-4.2632103E-1,-2.8880224E-1,-6.187956E-1,-2.3600874E0,-1.768819E-1,-4.1643947E-2,-3.4346616E0,-7.893452E-1,2.5393713E-2,-8.9208764E-1,-1.2066147E0,-6.347109E-2,-2.5190897E0,-4.287722E-1,-3.690454E-1,1.9621149E-1,-2.913987E-1,-2.5868769E0,-3.4482747E-2,-1.20733224E-1,-6.520725E-2,-2.8082356E-1,-2.9611398E-2,-1.6092417E-1,-5.961011E-2,-1.183002E-1,-1.5757938E-1,-3.6160648E-1,-1.9907771E-1,-3.5288033E-1,-1.8205274E-2,-1.0853145E-1,-6.0459208E-2,-3.0092177E-1,-4.4096924E-2,-2.1644762E-1,-2.7275375E-1,-3.8122326E-1,-2.6326615E-1,-3.7664065E-1,-2.6436215E-2,-1.9540861E-1,-1.8679276E-1,-3.282063E-1,5.807526E-2,3.424047E-2,3.7467804E-2,-1.6090931E-1,-1.1182391E-1,2.7674804E-2,-1.299338E-1,-3.1495664E-1,-7.238703E-2,-3.2525846E-1,-2.6529497E-1,-3.6261502E-1,-2.3336911E-1,-1.027916E-1,-1.9093525E-1,-3.3861715E-1,-2.0868368E-2,-1.0633236E-1,1.7857237E-2,-3.5465475E-2,-3.0233467E-1,-3.348727E-2,-1.07036315E-1,-9.480756E-3,-1.5877685E-1,-4.0777382E-1,-4.052375E-1,-2.4068677E-1,-1.2391724E-1,-1.0168322E-2,-8.643799E-3,3.564606E-2,-1.4856504E-1,-6.1166324E-2,-2.838679E-2,-3.069627E-1,1.7694274E-2,-7.089933E-2,-1.2360098E-1,-3.9382854E-1,-2.138389E-2,-2.2611926E-1,3.2567125E-2,-2.6648194E-3,-9.785086E-2,-1.3414428E-3,-3.2851806E-1,-1.7916495E-1],"categories":[],"categories_nodes":[],"categories_segments":[],"categories_sizes":[],"default_left":[0,0,0,0,0,0,0,0,0,0,0,0,0,0,0,0,0,0,0,0,0,0,0,0,0,0,0,0,0,0,0,0,0,0,0,0,0,0,0,0,0,0,0,0,0,0,0,0,0,0,0,0,0,0,0,0,0,0,0,0,0,0,0,0,0,0,0,0,0,0,0,0,0,0,0,0,0,0,0,0,0,0,0,0,0,0,0,0,0,0,0,0,0,0,0,0,0,0,0,0,0,0,0,0,0,0,0,0,0,0,0,0,0,0,0,0,0,0,0,0,0,0,0,0,0,0,0,0,0,0,0,0,0,0,0,0,0,0,0,0,0,0,0,0,0,0,0,0,0,0,0,0,0,0,0,0,0,0,0,0,0,0,0,0,0,0,0,0,0,0,0,0,0,0,0,0,0,0,0,0,0,0,0,0,0,0,0,0,0,0,0,0,0,0,0,0,0,0,0,0,0,0,0,0,0,0,0,0,0,0,0],"id":1,"left_children":[1,3,5,7,9,11,13,15,17,19,21,23,25,27,29,31,33,35,-1,37,39,41,43,-1,-1,45,47,49,51,53,55,57,-1,59,-1,61,-1,63,65,67,69,71,73,-1,75,-1,-1,-1,-1,-1,-1,77,-1,79,81,83,85,87,89,91,93,-1,95,97,-1,99,101,103,105,107,109,111,113,115,117,119,121,123,-1,125,127,-1,-1,129,131,133,135,137,139,141,-1,143,145,-1,-1,147,-1,149,151,153,155,157,-1,159,161,163,165,167,169,171,173,-1,-1,175,-1,177,179,181,183,-1,-1,185,187,-1,-1,189,191,193,195,197,199,201,-1,203,205,207,209,-1,-1,-1,-1,-1,-1,-1,-1,-1,-1,-1,-1,-1,-1,-1,-1,-1,-1,-1,-1,-1,-1,-1,-1,-1,-1,-1,-1,-1,-1,-1,-1,-1,-1,-1,-1,-1,-1,-1,-1,-1,-1,-1,-1,-1,-1,-1,-1,-1,-1,-1,-1,-1,-1,-1,-1,-1,-1,-1,-1,-1,-1,-1,-1,-1,-1,-1,-1,-1,-1,-1,-1,-1,-1],"loss_changes":[2.2664562E4,2.1187812E4,6.0236787E3,3.6585635E3,1.8665688E4,4.4842676E2,3.6058037E3,2.8623203E3,4.3237158E2,1.48840625E4,3.8326084E3,3.7193848E1,4.1975E2,2.737705E2,1.058031E3,8.163013E2,3.3950684E2,1.3139844E2,0E0,6.8060938E3,1.32776875E4,2.2274597E3,6.826367E2,0E0,0E0,5.5043945E0,1.0178122E2,2.7231445E1,4.277058E2,8.184795E2,6.643727E2,6.8073315E2,0E0,3.347788E2,0E0,2.1028955E2,0E0,1.0607972E3,8.077051E2,1.13619375E4,7.833011E3,2.612473E2,5.450619E2,0E0,7.983157E2,0E0,0E0,0E0,0E0,0E0,0E0,8.624548E1,0E0,3.9064E2,9.9434326E1,1.3841948E3,5.5974365E2,4.543899E2,5.139475E2,1.522196E2,4.9591675E1,0E0,5.8409668E1,6.7147284E2,0E0,3.344309E2,5.997168E1,2.2818738E3,3.445E3,7.8078115E3,4.5180176E2,2.4459717E1,1.6532727E2,5.880902E2,2.9147632E2,7.2112305E1,3.9401318E2,6.404205E1,0E0,7.3805774E2,9.047717E1,0E0,0E0,2.6988608E2,1.78979E2,4.5706042E2,2.014099E3,2.8659644E2,9.660425E2,2.2028363E2,0E0,1.2169846E1,1.3298944E2,0E0,0E0,8.536072E1,0E0,4.05475E2,8.177517E2,2.6603992E2,4.1125244E1,5.1518555E1,0E0,1.4771005E3,2.5960767E2,2.8691875E3,5.9643325E3,5.533228E3,1.2643472E3,5.3589233E2,9.7007324E1,0E0,0E0,1.3065948E2,0E0,6.487866E1,2.11086E2,2.8996313E2,1.3526902E3,0E0,0E0,6.2168694E1,3.3784265E2,0E0,0E0,8.9813354E1,1.0063524E2,9.776316E0,2.9398666E1,6.0554767E2,7.7645195E1,2.9784167E2,0E0,1.2631665E3,6.1839912E1,3.686299E2,2.5888672E2,0E0,0E0,0E0,0E0,0E0,0E0,0E0,0E0,0E0,0E0,0E0,0E0,0E0,0E0,0E0,0E0,0E0,0E0,0E0,0E0,0E0,0E0,0E0,0E0,0E0,0E0,0E0,0E0,0E0,0E0,0E0,0E0,0E0,0E0,0E0,0E0,0E0,0E0,0E0,0E0,0E0,0E0,0E0,0E0,0E0,0E0,0E0,0E0,0E0,0E0,0E0,0E0,0E0,0E0,0E0,0E0,0E0,0E0,0E0,0E0,0E0,0E0,0E0,0E0,0E0,0E0,0E0,0E0,0E0,0E0,0E0,0E0,0E0,0E0],"parents":[2147483647,0,0,1,1,2,2,3,3,4,4,5,5,6,6,7,7,8,8,9,9,10,10,11,11,12,12,13,13,14,14,15,15,16,16,17,17,19,19,20,20,21,21,22,22,25,25,26,26,27,27,28,28,29,29,30,30,31,31,33,33,35,35,37,37,38,38,39,39,40,40,41,41,42,42,44,44,51,51,53,53,54,54,55,55,56,56,57,57,58,58,59,59,60,60,62,62,63,63,65,65,66,66,67,67,68,68,69,69,70,70,71,71,72,72,73,73,74,74,75,75,76,76,77,77,79,79,80,80,83,83,84,84,85,85,86,86,87,87,88,88,89,89,91,91,92,92,95,95,97,97,98,98,99,99,100,100,101,101,103,103,104,104,105,105,106,106,107,107,108,108,109,109,110,110,113,113,115,115,116,116,117,117,118,118,121,121,122,122,125,125,126,126,127,127,128,128,129,129,130,130,131,131,133,133,134,134,135,135,136,136],"right_children":[2,4,6,8,10,12,14,16,18,20,22,24,26,28,30,32,34,36,-1,38,40,42,44,-1,-1,46,48,50,52,54,56,58,-1,60,-1,62,-1,64,66,68,70,72,74,-1,76,-1,-1,-1,-1,-1,-1,78,-1,80,82,84,86,88,90,92,94,-1,96,98,-1,100,102,104,106,108,110,112,114,116,118,120,122,124,-1,126,128,-1,-1,130,132,134,136,138,140,142,-1,144,146,-1,-1,148,-1,150,152,154,156,158,-1,160,162,164,166,168,170,172,174,-1,-1,176,-1,178,180,182,184,-1,-1,186,188,-1,-1,190,192,194,196,198,200,202,-1,204,206,208,210,-1,-1,-1,-1,-1,-1,-1,-1,-1,-1,-1,-1,-1,-1,-1,-1,-1,-1,-1,-1,-1,-1,-1,-1,-1,-1,-1,-1,-1,-1,-1,-1,-1,-1,-1,-1,-1,-1,-1,-1,-1,-1,-1,-1,-1,-1,-1,-1,-1,-1,-1,-1,-1,-1,-1,-1,-1,-1,-1,-1,-1,-1,-1,-1,-1,-1,-1,-1,-1,-1,-1,-1,-1,-1],"split_conditions":[7.936841E-3,-8.443301E-3,-1.712952E-4,4.829272E-3,8.228654E-4,-1.8894853E-4,-6.039099E-3,6.491196E-4,-2.089258E-4,-7.3333094E-3,-2.1631707E-4,-2.0102711E-4,-3.0668706E-3,-6.2504574E-3,-1.3134297E-4,1.9349012E0,6.7234767E-4,4.6422426E-4,-5.019405E-1,5.627112E-4,-1.3224146E-4,-5.1011955E-3,-5.459457E-3,-4.8298788E-1,-3.979128E-1,1.280904E0,-1.7965732E-4,-6.3429265E-3,5.3347886E-1,1.7363664E0,-5.6428015E-3,4.4451905E-3,-3.587596E-1,2.531944E-1,-3.785939E-1,4.9456605E-3,-4.3280444E-1,1.9349012E0,5.933723E-4,-3.9614277E-4,7.1919556E-3,-5.471073E-3,-4.4803303E-3,-4.1198158E-1,-2.4592152E-3,-3.735511E-1,-4.6306273E-1,-2.4192329E-1,-7.5405024E-2,-3.9889386E-1,-3.1697756E-1,4.283722E-1,-4.1413966E-1,-1.499254E-4,-1.3598858E-4,8.721559E-1,1.9349012E0,6.1474205E-4,1.6079028E0,-1.5718697E-4,-1.6734996E-4,-1.2930284E-1,1.0356551E0,5.404123E-4,-3.4109515E-1,3.934378E-3,6.1009644E-4,-1.6734996E-4,7.4480097E-3,7.550395E-4,-1.248502E-4,-5.576752E-3,1.3159397E0,-3.3644668E-3,-2.4403432E-4,-2.5516846E-3,-2.0153455E-4,-6.1711976E-3,-2.4725671E-1,-3.3971183E-3,1.6312598E0,-3.7585202E-1,-2.3263405E-1,-5.86737E-3,1.0122981E0,-4.797368E-3,-3.1425132E-4,1.8414731E0,7.320137E-1,4.561579E-3,-3.7673596E-1,2.4083948E-3,2.338562E-3,-2.622883E-1,-3.9877328E-1,5.0969655E-3,-4.1723567E-1,6.365E-3,4.304255E-3,-2.4403432E-4,-2.4957777E-4,8.604774E-1,-4.1026828E-1,5.255368E-3,-1.5164353E-4,7.838423E-4,-1.6919778E-4,-7.769596E-3,7.6804723E-4,7.366538E-3,7.2501497E-3,-3.9129072E-1,-2.9493132E-1,-5.2729244E-3,-3.4241685E-1,-3.124035E-4,-3.013166E-4,1.280904E0,-2.9215617E-3,-4.2632103E-1,-2.8880224E-1,-5.180125E-3,4.5172924E-1,-1.768819E-1,-4.1643947E-2,-1.536419E-4,-1.5828751E-4,2.5167302E-4,-3.6613164E-3,6.619426E-1,8.020848E-1,-2.2648006E-4,-4.287722E-1,1.6662953E0,1.8414731E0,-1.05327556E-4,-8.860336E-5,-3.4482747E-2,-1.20733224E-1,-6.520725E-2,-2.8082356E-1,-2.9611398E-2,-1.6092417E-1,-5.961011E-2,-1.183002E-1,-1.5757938E-1,-3.6160648E-1,-1.9907771E-1,-3.5288033E-1,-1.8205274E-2,-1.0853145E-1,-6.0459208E-2,-3.0092177E-1,-4.4096924E-2,-2.1644762E-1,-2.7275375E-1,-3.8122326E-1,-2.6326615E-1,-3.7664065E-1,-2.6436215E-2,-1.9540861E-1,-1.8679276E-1,-3.282063E-1,5.807526E-2,3.424047E-2,3.7467804E-2,-1.6090931E-1,-1.1182391E-1,2.7674804E-2,-1.299338E-1,-3.1495664E-1,-7.238703E-2,-3.2525846E-1,-2.6529497E-1,-3.6261502E-1,-2.3336911E-1,-1.027916E-1,-1.9093525E-1,-3.3861715E-1,-2.0868368E-2,-1.0633236E-1,1.7857237E-2,-3.5465475E-2,-3.0233467E-1,-3.348727E-2,-1.07036315E-1,-9.480756E-3,-1.5877685E-1,-4.0777382E-1,-4.052375E-1,-2.4068677E-1,-1.2391724E-1,-1.0168322E-2,-8.643799E-3,3.564606E-2,-1.4856504E-1,-6.1166324E-2,-2.838679E-2,-3.069627E-1,1.7694274E-2,-7.089933E-2,-1.2360098E-1,-3.9382854E-1,-2.138389E-2,-2.2611926E-1,3.2567125E-2,-2.6648194E-3,-9.785086E-2,-1.3414428E-3,-3.2851806E-1,-1.7916495E-1],"split_indices":[2,1,0,2,0,0,1,0,6,2,6,0,1,1,0,5,0,0,0,0,6,1,2,0,0,5,0,1,5,5,1,2,0,5,0,2,0,5,0,0,2,1,1,0,1,0,0,0,0,0,0,5,0,0,0,5,5,0,5,6,6,0,5,0,0,1,0,6,2,0,6,1,5,2,6,1,6,1,0,1,5,0,0,1,5,1,6,5,5,2,0,2,2,0,0,2,0,1,1,6,6,5,0,1,6,0,6,1,0,2,2,0,0,1,0,6,6,5,1,0,0,2,5,0,0,0,0,3,1,5,5,6,0,5,5,0,0,0,0,0,0,0,0,0,0,0,0,0,0,0,0,0,0,0,0,0,0,0,0,0,0,0,0,0,0,0,0,0,0,0,0,0,0,0,0,0,0,0,0,0,0,0,0,0,0,0,0,0,0,0,0,0,0,0,0,0,0,0,0,0,0,0,0,0,0,0,0,0,0,0,0],"split_type":[0,0,0,0,0,0,0,0,0,0,0,0,0,0,0,0,0,0,0,0,0,0,0,0,0,0,0,0,0,0,0,0,0,0,0,0,0,0,0,0,0,0,0,0,0,0,0,0,0,0,0,0,0,0,0,0,0,0,0,0,0,0,0,0,0,0,0,0,0,0,0,0,0,0,0,0,0,0,0,0,0,0,0,0,0,0,0,0,0,0,0,0,0,0,0,0,0,0,0,0,0,0,0,0,0,0,0,0,0,0,0,0,0,0,0,0,0,0,0,0,0,0,0,0,0,0,0,0,0,0,0,0,0,0,0,0,0,0,0,0,0,0,0,0,0,0,0,0,0,0,0,0,0,0,0,0,0,0,0,0,0,0,0,0,0,0,0,0,0,0,0,0,0,0,0,0,0,0,0,0,0,0,0,0,0,0,0,0,0,0,0,0,0,0,0,0,0,0,0,0,0,0,0,0,0,0,0,0,0,0,0],"sum_hessian":[2.591349E6,2.5790218E6,1.2327263E4,1.0230289E4,2.5687912E6,6.3050995E2,1.1696753E4,9.736028E3,4.9426093E2,2.55709E6,1.1701452E4,3.6138272E2,2.6912723E2,5.964763E2,1.1100276E4,9.082111E3,6.5391656E2,3.5050934E2,1.4375157E2,1.10792705E4,2.5460108E6,1.0743063E4,9.583894E2,2.4322952E2,1.1815319E2,1.1637538E2,1.5275186E2,2.9006808E2,3.0640823E2,1.1420273E3,9.958249E3,8.99139E3,9.07213E1,4.2979517E2,2.2412143E2,2.9213E2,5.8379345E1,9.948071E3,1.1311992E3,2.4727962E6,7.321445E4,5.4895026E2,1.0194112E4,2.3372906E2,7.2466034E2,5.2667004E1,6.3708374E1,8.8270226E1,6.4481636E1,2.0298294E2,8.708515E1,2.1194334E2,9.446489E1,9.238732E2,2.181541E2,1.1094341E3,8.848815E3,8.301922E3,6.894684E2,2.8854974E2,1.412454E2,8.452851E1,2.0760149E2,9.8375625E3,1.10509224E2,5.939282E2,5.37271E2,1.068852E4,2.4621078E6,7.231732E4,8.971268E2,1.6591505E2,3.8303522E2,1.4790092E3,8.715104E3,2.0393707E2,5.2072327E2,1.4077484E2,7.11685E1,4.8056876E2,4.4330444E2,1.2813914E2,9.001497E1,8.5026337E2,2.591708E2,6.444004E3,2.404811E3,6.7605728E3,1.5413489E3,5.999772E2,8.949121E1,1.5006769E2,1.3848207E2,5.1297695E1,8.994771E1,1.5712375E2,5.0477734E1,9.097919E3,7.3964374E2,4.1960703E2,1.7432121E2,2.0177837E2,3.354926E2,1.0140462E4,5.480571E2,2.410432E6,5.1675695E4,7.079273E4,1.5245994E3,3.381972E2,5.5892957E2,1.0161344E2,6.4301605E1,3.122928E2,7.074243E1,1.4661992E2,1.3323893E3,7.3205786E3,1.3945251E3,1.361245E2,6.781257E1,2.6216968E2,2.585536E2,7.145527E1,6.931957E1,1.5582741E2,3.2474136E2,2.6222287E2,1.8108159E2,3.5175616E2,4.9850717E2,1.6523792E2,9.393289E1,4.3019077E3,2.1420964E3,1.9290105E3,4.7580066E2,6.351204E3,4.0936862E2,1.2945558E3,2.4679308E2,1.8516685E2,4.148103E2,6.888677E1,8.1180916E1,8.523518E1,5.3246883E1,7.168236E1,8.54414E1,8.571279E3,5.26639E2,5.499044E2,1.8973933E2,1.304202E2,2.8918683E2,8.755643E1,8.676478E1,7.946207E1,1.2231631E2,9.594588E3,5.458742E2,3.248909E2,2.2316626E2,2.358817E6,5.1614875E4,5.0113824E4,1.56187E3,2.9668442E3,6.782588E4,8.922984E2,6.32301E2,1.8443973E2,1.5375749E2,1.5882333E2,4.0010623E2,1.6431367E2,1.4797911E2,5.0223007E1,9.639691E1,4.2459335E2,9.077959E2,1.2239805E3,6.096598E3,2.2176274E2,1.1727623E3,1.4025586E2,1.219138E2,1.79685E2,7.886859E1,9.549267E1,6.033474E1,1.9583553E2,1.2890584E2,1.9656403E2,6.565883E1,5.6722202E1,1.2435939E2,2.3601213E2,1.15744026E2,3.6375766E2,1.347495E2,8.776311E1,7.74748E1,3.9768157E3,3.2509186E2,1.3546914E3,7.874051E2,5.5490344E2,1.3741069E3,2.5167192E2,2.2412874E2],"tree_param":{"num_deleted":"0","num_feature":"8","num_nodes":"211","size_leaf_vector":"1"}},{"base_weights":[4.966978E-1,5.2901864E-1,-1.6028098E0,5.4398364E-1,4.2342037E-2,-9.7495615E-1,-2.6000042E0,8.0308235E-1,5.250993E-1,1.4803149E-1,-2.0976524E-1,-2.2636223E0,-7.6964E-1,-2.234462E0,-3.1526935E0,7.1552527E-1,9.571075E-1,5.351244E-1,4.163572E-1,2.407267E-1,1.6368291E-3,-8.064145E-1,-9.215289E-2,-1.767355E0,-2.708861E0,-5.151781E-1,-1.6210555E0,-3.141486E0,-1.6214993E0,-2.6222486E0,-3.4721866E0,9.499431E-1,6.828728E-1,1.0790087E0,8.3600616E-1,5.704626E-1,5.216911E-1,3.846685E-1,5.084676E-1,3.5555282E-1,1.5676925E-1,1.0352706E-1,-1.4524958E-1,-6.4936805E-1,-1.186281E0,4.4170623E-3,-6.140872E-1,-2.2706451E0,-1.2854129E0,-2.981549E0,-2.015707E0,-1.0917541E0,-3.5284862E-1,-1.1202683E0,-2.7437294E0,-3.2999737E0,-2.5585368E0,-1.3102634E0,-2.0002985E0,-2.4927716E0,-3.2860443E-1,-3.2331269E0,-3.535938E0,7.4202603E-1,1.1368129E0,6.2106603E-1,7.65594E-1,1.130043E0,9.90865E-1,1.0125338E0,7.0018554E-1,6.851436E-1,5.58498E-1,5.3972477E-1,4.765452E-1,4.1237968E-1,3.146129E-1,5.5845547E-1,4.1877675E-1,4.0857616E-1,2.3426293E-1,1.0109295E-1,2.9352456E-1,1.9541322E-1,-1.1100559E-2,-2.0484236E-1,1.5934112E-2,-4.6948114E-1,-8.4864616E-1,-1.0044086E0,-1.5335753E0,1.158057E-1,-1.9739212E-1,-4.3505934E-1,-8.629635E-1,-2.0105536E0,-2.9890726E0,-1.1036738E0,-1.767089E0,-3.2395773E0,-2.728853E0,-1.6138783E0,-2.3514473E0,-9.832017E-1,-1.5522041E0,-1.2894775E-1,-5.886326E-1,-9.1262084E-1,-1.5923591E0,-2.1641028E0,-3.2831821E0,-3.1791763E0,-3.5572827E0,-2.9859676E0,-2.0597756E0,-2.0246012E0,-9.9115974E-1,-1.8249086E0,-2.5320294E0,-2.4142847E0,-3.097987E0,-3.0743225E0,-3.7062308E-1,-3.402445E0,-3.6950867E0,8.9015704E-1,5.906626E-1,1.1466596E0,1.0726662E0,7.9050946E-1,5.911439E-1,8.845691E-1,7.4216396E-1,1.1470081E0,1.0749736E0,1.1218486E0,8.9623666E-1,1.0759389E0,9.130123E-1,7.8742987E-1,6.1159086E-1,4.4540355E-1,7.435011E-1,5.3116286E-1,5.7668287E-1,5.737426E-1,4.408885E-1,3.05586E-1,5.751095E-1,5.294008E-1,3.9461896E-1,3.7647343E-1,2.8491047E-1,6.0188043E-1,5.232307E-1,4.706232E-1,3.8984177E-1,4.9337187E-1,3.180999E-1,2.7037343E-1,-7.870836E-2,1.8328355E-1,-2.8805591E-2,1.357215E-1,3.6395362E-1,2.74259E-1,7.575899E-2,1.3203874E-1,-1.2278608E-1,-5.8808994E-2,-2.8396466E-1,4.3960873E-2,-2.7818167E-1,-6.3648736E-1,-3.7526733E-1,-1.1097801E0,-6.882799E-1,-7.4229425E-1,-1.2713896E0,-1.3313832E0,-1.7066435E0,3.004504E-1,1.0961081E-4,-4.0654725E-1,-1.3533746E-1,-2.6810583E-1,-5.466451E-1,-1.244169E0,-6.369095E-1,-2.3601322E0,-1.6946481E0,-3.2745102E-1,-2.6572284E-1,-1.2601842E0,-8.3856773E-1,-2.4866115E-1,-1.463852E-1,-3.0834484E0,-3.415521E0,-2.8733918E-1,-2.5375786E0,-1.361077E-1,-2.0138109E-1,-2.7521676E-1,-2.1769059E0,-1.1697772E0,-8.0566704E-1,-1.1044722E0,-1.909377E0,-1.488133E-4,-2.5013974E-1,-3.6461684E-1,-7.7053803E-1,-6.06127E-1,-1.069456E0,-1.2270756E0,-1.9402467E0,-2.8548481E0,-1.9192488E0,-2.8941078E0,-3.489127E0,-3.4562283E0,-3.068295E0,-3.6219115E0,-3.0356318E-1,-2.5594437E0,-3.244742E0,-1.6297115E0,-2.5206094E0,-1.3429872E0,-2.6279876E0,-6.9497687E-1,-1.2561108E0,-1.4556264E0,-2.1678162E0,-2.0291257E0,-3.1800785E0,-2.6391497E0,-2.2125907E0,-2.8918484E-1,-3.4102294E-1,-3.5483393E-1,-2.9867558E0,-3.869407E-1,-3.3407052E0,-3.6054053E0,-4.0538868E-1,8.621463E-2,1.11086264E-1,8.72665E-2,4.1983508E-2,9.4968796E-2,1.1493081E-1,1.1533805E-1,1.01229385E-1,8.882625E-2,6.433671E-2,5.1442336E-2,6.5778546E-2,9.6445106E-2,7.73453E-2,6.8057075E-2,7.967662E-2,1.1555611E-1,1.1260078E-1,1.1370478E-1,1.0263707E-1,1.15250744E-1,1.0327367E-1,9.546396E-2,8.428624E-2,1.027289E-1,1.1104914E-1,9.699757E-2,8.215682E-2,7.243072E-2,9.137426E-2,7.291771E-2,5.5132445E-2,5.0002195E-2,3.299051E-2,5.9918623E-2,8.172272E-2,4.8946578E-2,5.8606714E-2,6.490482E-2,5.6145992E-2,5.9122186E-2,5.4077443E-2,3.160404E-2,4.751843E-2,3.6037218E-2,8.682574E-3,5.444621E-2,6.289342E-2,5.718404E-2,4.482269E-2,3.7187282E-2,4.5712713E-2,4.0628504E-2,1.8616658E-2,1.9909907E-2,3.4756456E-2,6.1952926E-2,5.371449E-2,5.3341743E-2,3.6846224E-2,3.6706537E-2,4.8993405E-2,3.6383566E-2,4.5249607E-2,5.094346E-2,3.579949E-2,1.3539518E-2,3.2896392E-2,4.355613E-2,2.6237642E-2,7.220498E-3,-2.7928496E-2,7.7550556E-3,2.0856954E-2,1.9334877E-4,-3.510029E-2,1.7740164E-2,8.254665E-3,3.0990059E-2,5.0244298E-2,3.9762244E-2,2.1556472E-2,3.253027E-3,1.874662E-2,3.1704452E-2,4.8209294E-3,-1.4242652E-2,1.9831484E-2,-2.0802049E-2,1.5663616E-2,-5.0910186E-2,-2.3009082E-2,1.7636053E-2,-1.7382232E-3,4.956737E-4,-4.074579E-2,-1.9352775E-2,-8.3893746E-2,-4.238487E-2,-1.8511656E-3,-8.605807E-2,-1.6830991E-1,-1.14395894E-1,-6.1329126E-2,-8.263727E-2,-4.5224197E-2,-1.4318854E-1,-1.0378396E-1,-1.19226135E-1,-1.4035414E-1,-1.8283716E-1,-1.4193553E-1,-2.746137E-3,3.6192328E-2,-1.14827E-2,9.61812E-3,-5.870855E-2,-1.941569E-2,1.5925018E-2,-1.8307988E-2,-3.568476E-2,-8.453952E-3,-3.4675222E-2,-7.131932E-2,-1.00053705E-1,-1.4131829E-1,-4.402565E-2,-8.713608E-2,-2.5385842E-1,-2.0056894E-1,-1.8751253E-1,-1.5310593E-1,-1.041554E-1,-1.7082532E-1,-5.8336385E-2,-1.2516451E-1,-3.1844518E-1,-2.528781E-1,-3.5532102E-1,-3.0635723E-1,-2.0592499E-1,-2.693654E-1,-1.806895E-1,-2.6735437E-1,-1.3159329E-1,-9.6493416E-2,-1.1168187E-1,-7.107371E-2,-1.7132382E-1,-9.168119E-2,-2.549578E-1,-1.6240971E-1,-4.6357308E-2,8.956126E-3,-6.277928E-2,-1.9166466E-2,-2.6224736E-2,-7.8565225E-2,-1.1354702E-1,-6.657158E-2,-4.799757E-2,-8.4136344E-2,-1.335771E-1,-9.1846585E-2,-9.5607415E-2,-1.465465E-1,-2.0842896E-1,-1.144731E-1,-2.583513E-1,-3.3388397E-1,-1.2258511E-1,-2.0267148E-1,-2.2246042E-1,-3.0711815E-1,-3.6215174E-1,-3.070324E-1,-3.8258788E-1,-3.3004507E-1,-2.9272836E-1,-3.2375503E-1,-3.4462696E-1,-3.803966E-1,-2.0411181E-1,-2.872121E-1,-3.4420884E-1,-3.02888E-1,-2.0814793E-1,-1.3517909E-1,-2.0248535E-1,-3.05086E-1,-2.621946E-1,-8.157985E-2,-1.1756319E-1,-2.9480246E-1,-7.614234E-2,-2.838086E-2,-2.8544933E-1,-1.1476772E-1,-1.2671565E-1,-1.7274036E-1,-2.0001617E-1,-3.0983186E-1,-2.547304E-1,-1.7996754E-1,-2.7709225E-1,-3.3148798E-1,-2.0567675E-1,-2.8135973E-1,-2.0658703E-1,-2.5923422E-1,-3.184235E-1,-2.857359E-1,-3.5480842E-1,-3.2192078E-1,-3.759453E-1,-3.449445E-1],"categories":[],"categories_nodes":[],"categories_segments":[],"categories_sizes":[],"default_left":[0,0,0,0,0,0,0,0,0,0,0,0,0,0,0,0,0,0,0,0,0,0,0,0,0,0,0,0,0,0,0,0,0,0,0,0,0,0,0,0,0,0,0,0,0,0,0,0,0,0,0,0,0,0,0,0,0,0,0,0,0,0,0,0,0,0,0,0,0,0,0,0,0,0,0,0,0,0,0,0,0,0,0,0,0,0,0,0,0,0,0,0,0,0,0,0,0,0,0,0,0,0,0,0,0,0,0,0,0,0,0,0,0,0,0,0,0,0,0,0,0,0,0,0,0,0,0,0,0,0,0,0,0,0,0,0,0,0,0,0,0,0,0,0,0,0,0,0,0,0,0,0,0,0,0,0,0,0,0,0,0,0,0,0,0,0,0,0,0,0,0,0,0,0,0,0,0,0,0,0,0,0,0,0,0,0,0,0,0,0,0,0,0,0,0,0,0,0,0,0,0,0,0,0,0,0,0,0,0,0,0,0,0,0,0,0,0,0,0,0,0,0,0,0,0,0,0,0,0,0,0,0,0,0,0,0,0,0,0,0,0,0,0,0,0,0,0,0,0,0,0,0,0,0,0,0,0,0,0,0,0,0,0,0,0,0,0,0,0,0,0,0,0,0,0,0,0,0,0,0,0,0,0,0,0,0,0,0,0,0,0,0,0,0,0,0,0,0,0,0,0,0,0,0,0,0,0,0,0,0,0,0,0,0,0,0,0,0,0,0,0,0,0,0,0,0,0,0,0,0,0,0,0,0,0,0,0,0,0,0,0,0,0,0,0,0,0,0,0,0,0,0,0,0,0,0,0,0,0,0,0,0,0,0,0,0,0,0,0,0,0,0,0,0,0,0,0,0,0,0,0,0,0,0,0,0,0,0,0,0,0,0,0,0,0,0,0,0,0,0,0,0,0,0,0,0,0,0,0,0,0,0,0,0,0,0,0,0,0,0,0,0,0,0,0,0,0,0,0,0,0,0,0,0,0,0,0,0,0,0,0,0,0,0,0,0,0,0,0,0,0,0,0,0,0,0,0,0,0,0,0,0,0],"id":2,"left_children":[1,3,5,7,9,11,13,15,17,19,21,23,25,27,29,31,33,35,37,39,41,43,45,47,49,51,53,55,57,59,61,63,65,67,69,71,73,75,77,79,81,83,85,87,89,91,93,95,97,99,101,103,105,107,109,111,113,115,117,119,-1,121,123,125,127,129,131,133,135,137,139,141,143,145,147,149,151,153,155,157,159,161,163,165,167,169,171,173,175,177,179,181,183,185,187,189,191,193,195,197,199,201,203,205,207,209,211,213,215,217,219,221,223,225,227,229,231,233,235,237,239,241,-1,243,245,247,249,251,253,255,257,259,261,263,265,267,269,271,273,275,277,279,281,283,285,287,289,291,293,295,297,299,301,303,305,307,309,311,313,315,317,319,321,323,325,327,329,331,333,335,337,339,341,343,345,347,349,351,353,355,357,359,361,363,365,367,369,371,373,375,377,-1,-1,379,381,-1,-1,383,385,-1,387,-1,-1,-1,389,391,393,395,397,399,401,403,405,407,409,411,413,415,417,419,421,423,425,427,-1,429,431,433,435,437,439,441,443,445,447,449,451,453,455,-1,-1,-1,457,-1,459,461,-1,-1,-1,-1,-1,-1,-1,-1,-1,-1,-1,-1,-1,-1,-1,-1,-1,-1,-1,-1,-1,-1,-1,-1,-1,-1,-1,-1,-1,-1,-1,-1,-1,-1,-1,-1,-1,-1,-1,-1,-1,-1,-1,-1,-1,-1,-1,-1,-1,-1,-1,-1,-1,-1,-1,-1,-1,-1,-1,-1,-1,-1,-1,-1,-1,-1,-1,-1,-1,-1,-1,-1,-1,-1,-1,-1,-1,-1,-1,-1,-1,-1,-1,-1,-1,-1,-1,-1,-1,-1,-1,-1,-1,-1,-1,-1,-1,-1,-1,-1,-1,-1,-1,-1,-1,-1,-1,-1,-1,-1,-1,-1,-1,-1,-1,-1,-1,-1,-1,-1,-1,-1,-1,-1,-1,-1,-1,-1,-1,-1,-1,-1,-1,-1,-1,-1,-1,-1,-1,-1,-1,-1,-1,-1,-1,-1,-1,-1,-1,-1,-1,-1,-1,-1,-1,-1,-1,-1,-1,-1,-1,-1,-1,-1,-1,-1,-1,-1,-1,-1,-1,-1,-1,-1,-1,-1,-1,-1,-1,-1,-1,-1,-1,-1,-1,-1,-1,-1,-1,-1,-1,-1,-1,-1,-1,-1,-1,-1,-1,-1,-1,-1,-1,-1,-1,-1,-1,-1,-1,-1,-1,-1,-1,-1,-1,-1,-1],"loss_changes":[1.6937569E5,1.790325E4,2.3690484E4,1.16684375E4,1.9540101E3,6.142797E3,2.946711E3,2.184164E3,2.4229375E3,7.0119556E2,1.5200477E3,7.002998E2,4.3394473E3,4.8893984E3,9.768633E2,7.900117E2,8.658633E2,9.658125E2,5.474824E2,3.049591E2,2.9985458E2,2.1201685E2,9.1212537E2,3.6380957E2,3.115586E2,1.4433362E3,2.5883135E3,3.1946484E2,6.169678E2,1.8012012E2,4.385547E1,4.897422E2,4.6309766E2,1.3048828E2,7.05584E2,7.687656E2,1.2003438E3,2.7089844E2,2.1508594E2,8.583826E1,1.3913797E2,1.2459917E2,7.882292E1,9.014404E1,6.428162E1,3.4332663E2,1.2551709E2,1.3194238E2,6.586194E1,6.964258E1,6.0616333E1,1.6782935E2,6.3543115E2,3.1116895E2,4.3724805E2,7.531445E1,1.5653223E2,6.562788E2,2.1626758E2,7.980664E1,0E0,4.6865723E1,4.805078E1,1.335459E2,2.96875E0,2.6267773E2,1.0741992E2,1.6070312E1,1.3206836E2,7.9833984E1,1.2822754E2,7.405137E2,2.5201562E2,3.5425938E3,7.092664E3,2.0770117E2,7.260913E1,4.685254E1,2.5606201E1,7.116345E1,4.5983276E1,1.3870279E2,5.871872E1,6.1925995E1,8.417571E1,6.920532E1,1.8277826E1,2.0683167E1,4.936554E1,4.71203E1,1.019458E1,2.1023367E2,7.044536E1,3.0506226E1,1.0098883E2,5.619751E1,9.691895E0,2.2390259E1,4.22984E1,5.6816406E0,9.696777E0,1.9554138E1,1.2048462E1,8.996802E1,1.0098572E2,9.640079E1,2.386372E2,1.0593164E2,1.2124878E2,1.1088013E2,4.8725586E1,4.794922E1,1.874121E1,3.6806152E1,6.632593E1,3.6281665E2,1.5592773E2,2.2283057E2,1.841665E2,6.813965E1,3.4882812E0,1.3743652E1,0E0,3.217578E1,2.6892578E1,1.7713135E1,1.4225195E2,1.9082031E0,3.2189941E0,1.1142822E2,2.2521191E2,5.5828125E1,1.0841406E2,1.2402344E0,1.2041504E1,1.11015625E1,1.8641113E1,1.2000977E1,2.5199219E1,6.620508E1,5.8178467E1,6.5245605E1,4.5260352E2,4.6397656E2,3.3541406E2,4.5142188E2,1.1551406E3,1.8448809E3,4.4008594E2,4.5145752E1,1.23325195E2,7.274133E1,1.4370483E2,1.5437988E1,2.6656738E1,1.2124512E1,1.7822754E1,1.0248535E1,8.888062E0,4.7026367E0,1.2777912E1,2.1256714E1,4.9869984E1,3.605362E0,2.7208221E1,2.8570557E1,1.259515E1,3.5775826E1,1.8680592E1,6.775126E1,4.7008667E1,1.6441135E1,7.063443E0,4.2716537E1,1.4768463E1,6.3387268E1,2.4730103E1,8.136795E0,1.1215454E1,2.1728516E-2,3.9937744E0,7.6427246E1,6.68292E1,4.7523315E1,5.8965874E1,1.0739445E1,3.255371E1,1.6647522E1,3.3895752E1,1.1114014E1,5.687683E0,0E0,0E0,3.283423E1,2.1699081E1,0E0,0E0,1.0042969E1,2.1118164E0,0E0,1.4836182E1,0E0,0E0,0E0,2.9063843E1,3.872888E1,4.0841797E1,3.1381348E1,6.1102295E1,1.2455296E2,7.014589E1,1.13120544E2,1.22983154E2,2.1936707E1,5.769812E1,2.9433716E1,5.4516235E1,1.474939E1,3.5592285E1,2.398584E1,1.52265625E1,1.8288574E1,2.322461E1,1.1819336E1,0E0,1.991748E1,2.5170898E-1,2.062262E1,3.8439575E1,2.81255E2,2.1566504E2,2.5620972E1,1.7930261E2,4.197998E1,1.3784229E2,3.489978E1,4.8132324E0,7.204248E1,4.2898926E1,0E0,0E0,0E0,3.711914E0,0E0,2.3576172E1,1.2043945E1,0E0,0E0,0E0,0E0,0E0,0E0,0E0,0E0,0E0,0E0,0E0,0E0,0E0,0E0,0E0,0E0,0E0,0E0,0E0,0E0,0E0,0E0,0E0,0E0,0E0,0E0,0E0,0E0,0E0,0E0,0E0,0E0,0E0,0E0,0E0,0E0,0E0,0E0,0E0,0E0,0E0,0E0,0E0,0E0,0E0,0E0,0E0,0E0,0E0,0E0,0E0,0E0,0E0,0E0,0E0,0E0,0E0,0E0,0E0,0E0,0E0,0E0,0E0,0E0,0E0,0E0,0E0,0E0,0E0,0E0,0E0,0E0,0E0,0E0,0E0,0E0,0E0,0E0,0E0,0E0,0E0,0E0,0E0,0E0,0E0,0E0,0E0,0E0,0E0,0E0,0E0,0E0,0E0,0E0,0E0,0E0,0E0,0E0,0E0,0E0,0E0,0E0,0E0,0E0,0E0,0E0,0E0,0E0,0E0,0E0,0E0,0E0,0E0,0E0,0E0,0E0,0E0,0E0,0E0,0E0,0E0,0E0,0E0,0E0,0E0,0E0,0E0,0E0,0E0,0E0,0E0,0E0,0E0,0E0,0E0,0E0,0E0,0E0,0E0,0E0,0E0,0E0,0E0,0E0,0E0,0E0,0E0,0E0,0E0,0E0,0E0,0E0,0E0,0E0,0E0,0E0,0E0,0E0,0E0,0E0,0E0,0E0,0E0,0E0,0E0,0E0,0E0,0E0,0E0,0E0,0E0,0E0,0E0,0E0,0E0,0E0,0E0,0E0,0E0,0E0,0E0,0E0,0E0,0E0,0E0,0E0,0E0,0E0,0E0,0E0,0E0,0E0,0E0,0E0,0E0,0E0,0E0,0E0,0E0,0E0,0E0,0E0,0E0,0E0,0E0,0E0,0E0,0E0,0E0,0E0,0E0,0E0,0E0,0E0,0E0,0E0,0E0],"parents":[2147483647,0,0,1,1,2,2,3,3,4,4,5,5,6,6,7,7,8,8,9,9,10,10,11,11,12,12,13,13,14,14,15,15,16,16,17,17,18,18,19,19,20,20,21,21,22,22,23,23,24,24,25,25,26,26,27,27,28,28,29,29,30,30,31,31,32,32,33,33,34,34,35,35,36,36,37,37,38,38,39,39,40,40,41,41,42,42,43,43,44,44,45,45,46,46,47,47,48,48,49,49,50,50,51,51,52,52,53,53,54,54,55,55,56,56,57,57,58,58,59,59,61,61,62,62,63,63,64,64,65,65,66,66,67,67,68,68,69,69,70,70,71,71,72,72,73,73,74,74,75,75,76,76,77,77,78,78,79,79,80,80,81,81,82,82,83,83,84,84,85,85,86,86,87,87,88,88,89,89,90,90,91,91,92,92,93,93,94,94,95,95,96,96,97,97,98,98,99,99,100,100,101,101,102,102,103,103,104,104,105,105,106,106,107,107,108,108,109,109,110,110,111,111,112,112,113,113,114,114,115,115,116,116,117,117,118,118,119,119,120,120,121,121,123,123,124,124,125,125,126,126,127,127,128,128,129,129,130,130,131,131,132,132,133,133,134,134,135,135,136,136,137,137,138,138,139,139,140,140,141,141,142,142,143,143,144,144,145,145,146,146,147,147,148,148,149,149,150,150,151,151,152,152,153,153,154,154,155,155,156,156,157,157,158,158,159,159,160,160,161,161,162,162,163,163,164,164,165,165,166,166,167,167,168,168,169,169,170,170,171,171,172,172,173,173,174,174,175,175,176,176,177,177,178,178,179,179,180,180,181,181,182,182,183,183,184,184,185,185,186,186,187,187,188,188,189,189,190,190,193,193,194,194,197,197,198,198,200,200,204,204,205,205,206,206,207,207,208,208,209,209,210,210,211,211,212,212,213,213,214,214,215,215,216,216,217,217,218,218,219,219,220,220,221,221,222,222,223,223,225,225,226,226,227,227,228,228,229,229,230,230,231,231,232,232,233,233,234,234,235,235,236,236,237,237,238,238,242,242,244,244,245,245],"right_children":[2,4,6,8,10,12,14,16,18,20,22,24,26,28,30,32,34,36,38,40,42,44,46,48,50,52,54,56,58,60,62,64,66,68,70,72,74,76,78,80,82,84,86,88,90,92,94,96,98,100,102,104,106,108,110,112,114,116,118,120,-1,122,124,126,128,130,132,134,136,138,140,142,144,146,148,150,152,154,156,158,160,162,164,166,168,170,172,174,176,178,180,182,184,186,188,190,192,194,196,198,200,202,204,206,208,210,212,214,216,218,220,222,224,226,228,230,232,234,236,238,240,242,-1,244,246,248,250,252,254,256,258,260,262,264,266,268,270,272,274,276,278,280,282,284,286,288,290,292,294,296,298,300,302,304,306,308,310,312,314,316,318,320,322,324,326,328,330,332,334,336,338,340,342,344,346,348,350,352,354,356,358,360,362,364,366,368,370,372,374,376,378,-1,-1,380,382,-1,-1,384,386,-1,388,-1,-1,-1,390,392,394,396,398,400,402,404,406,408,410,412,414,416,418,420,422,424,426,428,-1,430,432,434,436,438,440,442,444,446,448,450,452,454,456,-1,-1,-1,458,-1,460,462,-1,-1,-1,-1,-1,-1,-1,-1,-1,-1,-1,-1,-1,-1,-1,-1,-1,-1,-1,-1,-1,-1,-1,-1,-1,-1,-1,-1,-1,-1,-1,-1,-1,-1,-1,-1,-1,-1,-1,-1,-1,-1,-1,-1,-1,-1,-1,-1,-1,-1,-1,-1,-1,-1,-1,-1,-1,-1,-1,-1,-1,-1,-1,-1,-1,-1,-1,-1,-1,-1,-1,-1,-1,-1,-1,-1,-1,-1,-1,-1,-1,-1,-1,-1,-1,-1,-1,-1,-1,-1,-1,-1,-1,-1,-1,-1,-1,-1,-1,-1,-1,-1,-1,-1,-1,-1,-1,-1,-1,-1,-1,-1,-1,-1,-1,-1,-1,-1,-1,-1,-1,-1,-1,-1,-1,-1,-1,-1,-1,-1,-1,-1,-1,-1,-1,-1,-1,-1,-1,-1,-1,-1,-1,-1,-1,-1,-1,-1,-1,-1,-1,-1,-1,-1,-1,-1,-1,-1,-1,-1,-1,-1,-1,-1,-1,-1,-1,-1,-1,-1,-1,-1,-1,-1,-1,-1,-1,-1,-1,-1,-1,-1,-1,-1,-1,-1,-1,-1,-1,-1,-1,-1,-1,-1,-1,-1,-1,-1,-1,-1,-1,-1,-1,-1,-1,-1,-1,-1,-1,-1,-1,-1,-1,-1,-1,-1,-1],"split_conditions":[-1.2288413E-4,-1.4153306E-4,-1.0963329E-4,-3.7594663E-4,-1.298539E-4,-6.577301E-1,-1.463954E-4,2.25709E-3,-1.6987728E-4,-1.9137157E-4,-6.3437307E-1,-1.1780816E-4,-1.463954E-4,7.945497E-3,9.4222707E-1,-4.1087216E-4,-3.888557E-4,-3.0339966E-4,-1.7318873E-4,-2.6661367E-3,-1.3514704E-4,-9.8980774E-5,-1.463954E-4,-1.1599064E0,-1.8889517E-4,6.633809E-2,1.4327248E0,-2.6066044E-1,6.05135E-3,-1.5533916E-4,1.210833E0,-3.1433292E-3,2.4890128E-4,-2.8468628E-4,-3.2533822E-4,2.4058612E-4,2.4705348E-4,-1.5183991E-4,-1.502881E-4,-1.6117793E-4,7.785536E-3,-2.0275378E-4,2.4890574E-4,-1.2663999E-4,6.679847E-3,-1.9968674E-4,1.5378317E0,6.9475397E-3,6.5052644E-3,-1.3467628E0,-1.09143766E-4,6.3539594E-3,-1.1780816E-4,1.1524404E0,-1.1780816E-4,-9.8980774E-5,-1.6117793E-4,-5.040459E-3,-2.0245845E-4,5.7603787E-3,-3.2860443E-1,-2.1077362E-4,-2.643603E-4,-4.180703E-4,-2.5789294E-4,-5.040459E-3,-4.9822647E-3,-3.930521E-4,-4.0160352E-4,-3.4843592E-4,-3.8193743E-4,-3.4665118E-4,-3.4665118E-4,-2.1997058E-4,-2.5203978E-4,-6.169426E-3,-3.6321601E-3,-2.67132E-4,-1.4696551E-4,-3.9813253E-3,-1.463954E-4,-1.3514704E-4,2.4520565E-4,-1.1561112E-4,-1.6273042E-4,-1.1414494E-3,-1.6764528E-4,-2.1568849E-4,2.455752E-4,-1.2663999E-4,-1.2663999E-4,-3.1898844E-3,-5.901733E-3,-1.2663999E-4,2.455752E-4,-1.4752264E0,7.1919556E-3,1.1281231E-3,2.4520565E-4,9.419018E-4,2.4797738E-4,-1.7503655E-4,-6.949228E-3,-2.6066044E-1,-1.1780816E-4,-2.3518882E-3,-2.5497484E-3,-1.1780816E-4,-1.1780816E-4,2.4520565E-4,1.6312598E0,-1.359371E-4,7.1919556E-3,-1.7780827E-4,-1.5193885E-4,-1.6117793E-4,-1.5193885E-4,-1.5193885E-4,-1.6394965E-4,2.4705348E-4,5.969878E-3,-2.2832787E-4,-3.7062308E-1,-3.1425132E-4,5.0969655E-3,-3.4575777E-3,-4.5167115E-3,-3.085135E-3,-4.180703E-4,-3.0501225E-4,-2.4100824E-3,-3.8349445E-4,-2.282055E-3,-3.982624E-4,-3.4196855E-4,-4.0573065E-4,-3.681333E-4,5.9187144E-1,-3.8038017E-4,5.271548E-3,-2.9484925E-4,-3.1547056E-4,-2.9105523E-3,2.4890128E-4,2.4317304E-4,2.4335783E-4,2.4058612E-4,2.5167302E-4,3.3278626E-3,-1.592255E-4,2.4890574E-4,-1.1561112E-4,1.2328726E-3,-1.5490985E-4,-2.07078E-4,4.7508627E-1,2.4890574E-4,-1.6764528E-4,-1.7318873E-4,2.4058612E-4,2.4520565E-4,2.4317304E-4,1.7013309E0,-1.3514704E-4,2.5001E-4,-5.459457E-3,2.4890574E-4,-5.389624E-3,2.525999E-4,-6.4022024E-3,-1.3584412E0,-1.5533916E-4,-7.1238102E-3,-6.0181213E-3,2.5259692E-4,6.435431E-3,-6.7048124E-3,2.4890574E-4,-2.0737332E-4,6.8311514E-3,-1.5219405E0,-5.3547076E-3,2.4705348E-4,1.1305217E-1,-1.7117524E-3,4.561579E-3,1.1874759E0,-1.2663999E-4,-1.2663999E-4,4.6470956E-4,2.4705348E-4,-3.2745102E-1,-2.6572284E-1,-5.901733E-3,1.5936765E-3,-2.4866115E-1,-1.463852E-1,5.5782025E-4,7.1919556E-3,-2.8733918E-1,-1.359371E-4,-1.361077E-1,-2.0138109E-1,-2.7521676E-1,6.5518194E-3,-7.690068E-4,-5.750428E-3,2.4428175E-4,2.4520565E-4,-7.216921E-3,-1.7503655E-4,-1.5193885E-4,2.4428175E-4,1.0006196E0,2.5480608E-3,1.280904E0,2.5167302E-4,1.7363664E0,1.4911175E0,-2.5974077E-4,2.4890574E-4,-5.901733E-3,6.2841265E-3,1.3259833E-3,-3.0356318E-1,-1.7012168E-4,2.4797738E-4,-1.9058934E-1,-1.4148054E-4,-5.5060126E-3,-7.3333094E-3,2.5167302E-4,-4.83096E-3,-2.2093662E-4,-2.3479522E-4,2.4428175E-4,-1.6117793E-4,4.1669366E-1,-1.7751295E-4,-2.8918484E-1,-3.4102294E-1,-3.5483393E-1,-4.7378493E-3,-3.869407E-1,-3.5157718E-3,-4.4585173E-3,-4.0538868E-1,8.621463E-2,1.11086264E-1,8.72665E-2,4.1983508E-2,9.4968796E-2,1.1493081E-1,1.1533805E-1,1.01229385E-1,8.882625E-2,6.433671E-2,5.1442336E-2,6.5778546E-2,9.6445106E-2,7.73453E-2,6.8057075E-2,7.967662E-2,1.1555611E-1,1.1260078E-1,1.1370478E-1,1.0263707E-1,1.15250744E-1,1.0327367E-1,9.546396E-2,8.428624E-2,1.027289E-1,1.1104914E-1,9.699757E-2,8.215682E-2,7.243072E-2,9.137426E-2,7.291771E-2,5.5132445E-2,5.0002195E-2,3.299051E-2,5.9918623E-2,8.172272E-2,4.8946578E-2,5.8606714E-2,6.490482E-2,5.6145992E-2,5.9122186E-2,5.4077443E-2,3.160404E-2,4.751843E-2,3.6037218E-2,8.682574E-3,5.444621E-2,6.289342E-2,5.718404E-2,4.482269E-2,3.7187282E-2,4.5712713E-2,4.0628504E-2,1.8616658E-2,1.9909907E-2,3.4756456E-2,6.1952926E-2,5.371449E-2,5.3341743E-2,3.6846224E-2,3.6706537E-2,4.8993405E-2,3.6383566E-2,4.5249607E-2,5.094346E-2,3.579949E-2,1.3539518E-2,3.2896392E-2,4.355613E-2,2.6237642E-2,7.220498E-3,-2.7928496E-2,7.7550556E-3,2.0856954E-2,1.9334877E-4,-3.510029E-2,1.7740164E-2,8.254665E-3,3.0990059E-2,5.0244298E-2,3.9762244E-2,2.1556472E-2,3.253027E-3,1.874662E-2,3.1704452E-2,4.8209294E-3,-1.4242652E-2,1.9831484E-2,-2.0802049E-2,1.5663616E-2,-5.0910186E-2,-2.3009082E-2,1.7636053E-2,-1.7382232E-3,4.956737E-4,-4.074579E-2,-1.9352775E-2,-8.3893746E-2,-4.238487E-2,-1.8511656E-3,-8.605807E-2,-1.6830991E-1,-1.14395894E-1,-6.1329126E-2,-8.263727E-2,-4.5224197E-2,-1.4318854E-1,-1.0378396E-1,-1.19226135E-1,-1.4035414E-1,-1.8283716E-1,-1.4193553E-1,-2.746137E-3,3.6192328E-2,-1.14827E-2,9.61812E-3,-5.870855E-2,-1.941569E-2,1.5925018E-2,-1.8307988E-2,-3.568476E-2,-8.453952E-3,-3.4675222E-2,-7.131932E-2,-1.00053705E-1,-1.4131829E-1,-4.402565E-2,-8.713608E-2,-2.5385842E-1,-2.0056894E-1,-1.8751253E-1,-1.5310593E-1,-1.041554E-1,-1.7082532E-1,-5.8336385E-2,-1.2516451E-1,-3.1844518E-1,-2.528781E-1,-3.5532102E-1,-3.0635723E-1,-2.0592499E-1,-2.693654E-1,-1.806895E-1,-2.6735437E-1,-1.3159329E-1,-9.6493416E-2,-1.1168187E-1,-7.107371E-2,-1.7132382E-1,-9.168119E-2,-2.549578E-1,-1.6240971E-1,-4.6357308E-2,8.956126E-3,-6.277928E-2,-1.9166466E-2,-2.6224736E-2,-7.8565225E-2,-1.1354702E-1,-6.657158E-2,-4.799757E-2,-8.4136344E-2,-1.335771E-1,-9.1846585E-2,-9.5607415E-2,-1.465465E-1,-2.0842896E-1,-1.144731E-1,-2.583513E-1,-3.3388397E-1,-1.2258511E-1,-2.0267148E-1,-2.2246042E-1,-3.0711815E-1,-3.6215174E-1,-3.070324E-1,-3.8258788E-1,-3.3004507E-1,-2.9272836E-1,-3.2375503E-1,-3.4462696E-1,-3.803966E-1,-2.0411181E-1,-2.872121E-1,-3.4420884E-1,-3.02888E-1,-2.0814793E-1,-1.3517909E-1,-2.0248535E-1,-3.05086E-1,-2.621946E-1,-8.157985E-2,-1.1756319E-1,-2.9480246E-1,-7.614234E-2,-2.838086E-2,-2.8544933E-1,-1.1476772E-1,-1.2671565E-1,-1.7274036E-1,-2.0001617E-1,-3.0983186E-1,-2.547304E-1,-1.7996754E-1,-2.7709225E-1,-3.3148798E-1,-2.0567675E-1,-2.8135973E-1,-2.0658703E-1,-2.5923422E-1,-3.184235E-1,-2.857359E-1,-3.5480842E-1,-3.2192078E-1,-3.759453E-1,-3.449445E-1],"split_indices":[7,7,7,7,7,5,4,2,7,6,5,7,4,5,5,7,7,7,4,2,7,6,4,5,4,5,5,5,2,6,5,2,3,6,6,3,3,7,7,4,2,4,3,7,2,6,5,2,2,5,6,2,7,5,7,6,4,2,6,2,0,6,6,7,6,2,2,7,7,6,7,7,7,7,7,2,2,6,7,2,4,7,3,6,6,2,4,4,3,7,7,2,2,7,3,5,2,2,3,2,3,4,2,5,7,2,2,7,7,3,5,6,2,4,4,4,4,4,4,3,2,6,0,6,2,2,2,2,7,6,2,7,2,7,6,7,4,5,7,2,6,4,2,3,3,3,3,3,2,7,3,6,2,7,6,5,3,4,4,3,3,3,5,7,3,2,3,2,3,2,5,6,2,2,3,2,2,3,4,2,5,2,3,5,2,2,5,7,7,2,3,0,0,2,2,0,0,2,2,0,6,0,0,0,2,2,2,3,3,2,4,4,3,5,2,5,3,5,5,6,3,2,2,2,0,6,3,5,6,2,2,3,2,6,6,3,4,5,6,0,0,0,2,0,2,2,0,0,0,0,0,0,0,0,0,0,0,0,0,0,0,0,0,0,0,0,0,0,0,0,0,0,0,0,0,0,0,0,0,0,0,0,0,0,0,0,0,0,0,0,0,0,0,0,0,0,0,0,0,0,0,0,0,0,0,0,0,0,0,0,0,0,0,0,0,0,0,0,0,0,0,0,0,0,0,0,0,0,0,0,0,0,0,0,0,0,0,0,0,0,0,0,0,0,0,0,0,0,0,0,0,0,0,0,0,0,0,0,0,0,0,0,0,0,0,0,0,0,0,0,0,0,0,0,0,0,0,0,0,0,0,0,0,0,0,0,0,0,0,0,0,0,0,0,0,0,0,0,0,0,0,0,0,0,0,0,0,0,0,0,0,0,0,0,0,0,0,0,0,0,0,0,0,0,0,0,0,0,0,0,0,0,0,0,0,0,0,0,0,0,0,0,0,0,0,0,0,0,0,0,0,0,0,0,0,0,0,0,0,0,0,0,0],"split_type":[0,0,0,0,0,0,0,0,0,0,0,0,0,0,0,0,0,0,0,0,0,0,0,0,0,0,0,0,0,0,0,0,0,0,0,0,0,0,0,0,0,0,0,0,0,0,0,0,0,0,0,0,0,0,0,0,0,0,0,0,0,0,0,0,0,0,0,0,0,0,0,0,0,0,0,0,0,0,0,0,0,0,0,0,0,0,0,0,0,0,0,0,0,0,0,0,0,0,0,0,0,0,0,0,0,0,0,0,0,0,0,0,0,0,0,0,0,0,0,0,0,0,0,0,0,0,0,0,0,0,0,0,0,0,0,0,0,0,0,0,0,0,0,0,0,0,0,0,0,0,0,0,0,0,0,0,0,0,0,0,0,0,0,0,0,0,0,0,0,0,0,0,0,0,0,0,0,0,0,0,0,0,0,0,0,0,0,0,0,0,0,0,0,0,0,0,0,0,0,0,0,0,0,0,0,0,0,0,0,0,0,0,0,0,0,0,0,0,0,0,0,0,0,0,0,0,0,0,0,0,0,0,0,0,0,0,0,0,0,0,0,0,0,0,0,0,0,0,0,0,0,0,0,0,0,0,0,0,0,0,0,0,0,0,0,0,0,0,0,0,0,0,0,0,0,0,0,0,0,0,0,0,0,0,0,0,0,0,0,0,0,0,0,0,0,0,0,0,0,0,0,0,0,0,0,0,0,0,0,0,0,0,0,0,0,0,0,0,0,0,0,0,0,0,0,0,0,0,0,0,0,0,0,0,0,0,0,0,0,0,0,0,0,0,0,0,0,0,0,0,0,0,0,0,0,0,0,0,0,0,0,0,0,0,0,0,0,0,0,0,0,0,0,0,0,0,0,0,0,0,0,0,0,0,0,0,0,0,0,0,0,0,0,0,0,0,0,0,0,0,0,0,0,0,0,0,0,0,0,0,0,0,0,0,0,0,0,0,0,0,0,0,0,0,0,0,0,0,0,0,0,0,0,0,0,0,0,0,0,0,0,0,0,0,0,0,0,0,0,0,0,0,0,0,0,0,0,0,0,0,0,0,0],"sum_hessian":[2.4960242E6,2.4581825E6,3.7841707E4,2.3848498E6,7.3332586E4,2.3222396E4,1.4619312E4,1.6200808E5,2.2228418E6,5.1671188E4,2.1661396E4,3.190048E3,2.0032348E4,8.802492E3,5.81682E3,1.032948E5,5.8713277E4,2.0352089E6,1.8763294E5,3.163786E4,2.0033328E4,3.5658623E3,1.8095533E4,1.5109261E3,1.679122E3,1.5424149E4,4.6081987E3,3.5481038E3,5.2543877E3,2.1900127E3,3.626807E3,1.2625579E4,9.066922E4,2.9256059E4,2.9457219E4,5.605537E5,1.4746551E6,1.3960862E5,4.8024312E4,1.3361074E4,1.8276785E4,1.182855E4,8.204778E3,2.5247686E3,1.041094E3,1.527103E4,2.8245034E3,7.3727814E2,7.7364795E2,1.2026832E3,4.7643872E2,3.3872605E3,1.2036889E4,3.1880947E3,1.4201042E3,2.7860046E3,7.620991E2,2.8868774E3,2.3675105E3,1.8365405E3,3.5347226E2,7.744462E2,2.8523606E3,5.978587E3,6.6469917E3,5.1899805E4,3.8769414E4,1.8520852E4,1.0735207E4,1.2806286E4,1.6650932E4,5.2951914E4,5.076018E5,1.0537284E6,4.2092675E5,1.00034195E5,3.9574426E4,3.0834143E4,1.7190172E4,9.295198E3,4.065876E3,1.2989992E4,5.286793E3,6.5651685E3,5.2633813E3,5.989917E3,2.2148613E3,1.3287086E3,1.1960598E3,6.858288E2,3.5526517E2,9.840171E3,5.430859E3,1.6443773E3,1.1801261E3,5.4409766E2,1.9318053E2,5.6410077E2,2.0954716E2,5.892148E2,6.1346844E2,2.1951758E2,2.5692114E2,2.7435872E3,6.4367316E2,6.1748184E3,5.8620703E3,2.2162275E3,9.7186725E2,6.86978E2,7.331262E2,1.9050208E3,8.80984E2,4.0771036E2,3.5438876E2,8.89753E2,1.9971244E3,1.7836201E3,5.838903E2,1.6301279E3,2.0641252E2,5.854344E2,1.890118E2,1.5633839E3,1.2889767E3,3.0190898E3,2.9594973E3,5.747808E3,8.991834E2,7.785649E3,4.4114152E4,6.3727246E3,3.239669E4,1.4143781E4,4.3770713E3,4.4981104E3,6.237096E3,7.8165493E3,4.989737E3,8.385424E3,8.265509E3,1.03679E4,4.2584016E4,2.0279439E5,3.048074E5,7.839132E5,2.6981522E5,1.5393364E5,2.669931E5,1.3178109E4,8.6856086E4,1.2833902E4,2.6740523E4,1.3802439E4,1.7031703E4,6.151857E3,1.1038314E4,4.7959297E3,4.4992686E3,3.6454067E3,4.204694E2,7.9557476E3,5.0342446E3,1.6323298E3,3.6544631E3,3.956652E3,2.608516E3,2.3067734E3,2.956608E3,2.1055388E3,3.884378E3,2.0229425E3,1.919189E2,4.7714734E2,8.515613E2,4.52807E2,7.432528E2,3.4797607E2,3.3785272E2,1.6785558E2,1.8740959E2,3.7899763E3,6.050195E3,1.2413477E3,4.189511E3,6.601179E2,9.842594E2,4.376286E2,7.424975E2,2.5521144E2,2.888862E2,9.908471E1,9.409582E1,3.523379E2,2.1176291E2,5.9993668E1,1.495535E2,3.2200198E2,2.6721277E2,3.4143607E2,2.720324E2,1.3719716E2,8.232041E1,7.347226E1,1.8344887E2,1.335007E3,1.4085803E3,2.8744296E2,3.562302E2,2.9939482E3,3.1808704E3,2.6283157E3,3.233755E3,7.518315E2,1.464396E3,4.7628894E2,4.9557828E2,1.7699818E2,5.0997983E2,2.5895547E2,4.7417075E2,5.358808E2,1.3691399E3,7.785801E2,1.0240391E2,1.5806714E2,2.4964323E2,1.8566081E2,1.6872795E2,4.1930826E2,4.7044476E2,9.446944E2,1.0524299E3,8.6130884E2,9.223113E2,3.310882E2,2.5280212E2,7.6507544E2,8.650525E2,1.305118E2,7.590073E1,8.512326E1,5.0031116E2,1.7536479E2,1.3880192E3,1.0400632E3,2.489135E2,2.68343E3,3.3565982E2,1.1149039E3,1.8445933E3,8.1030846E1,5.6667773E3,3.7702197E2,5.2216144E2,4.674885E3,3.1107646E3,2.0510426E4,2.3603729E4,3.7029648E3,2.6697595E3,1.523008E4,1.716661E4,1.0012057E4,4.131724E3,1.9123188E3,2.4647527E3,3.337807E3,1.1603037E3,2.9701855E3,3.2669106E3,3.2588286E3,4.55772E3,3.068604E3,1.9211329E3,5.595768E3,2.7896558E3,2.797056E3,5.4684526E3,7.036879E3,3.331021E3,1.4402002E4,2.8182012E4,1.1526571E5,8.752868E4,5.2968566E4,2.5183884E5,5.1228806E5,2.716251E5,5.8147895E4,2.1166733E5,1.2310314E5,3.0830508E4,1.7013225E5,9.686085E4,8.6497705E3,4.528338E3,6.368768E4,2.3168404E4,1.10947705E4,1.7391317E3,1.12865625E4,1.5453962E4,1.0838876E4,2.9635637E3,1.5977625E4,1.0540784E3,9.700097E2,5.181847E3,7.805339E3,3.2329758E3,4.284772E3,5.111578E2,2.5327689E2,4.2459917E3,1.6586201E2,3.4795447E3,2.4030473E2,1.8016467E2,1.5362032E3,6.419544E3,4.5966934E3,4.3755136E2,9.1375995E2,7.185699E2,2.6308628E3,1.02360034E3,1.2737389E3,2.6829133E3,1.881644E3,7.26872E2,7.184414E2,1.588332E3,2.7867124E3,1.6989545E2,1.2440074E3,8.615314E2,7.483975E2,3.1359805E3,6.399132E2,1.3830293E3,6.046069E1,1.314582E2,1.5028362E2,3.2686374E2,7.493325E2,1.0222876E2,3.1736285E2,1.3544415E2,1.0301468E2,6.4023816E2,2.683419E2,7.963419E1,1.9720337E2,1.4064935E2,6.331204E1,1.0454353E2,1.2786649E2,5.9543095E1,5.9841797E2,3.1915583E3,2.7545522E3,3.2956426E3,6.7003424E2,5.713135E2,5.8395654E2,3.6055547E3,4.4435742E2,2.1576048E2,4.487484E2,5.35511E2,1.8208069E2,2.555479E2,4.0536417E2,3.3713333E2,1.6564954E2,8.956191E1,1.323788E2,1.5650739E2,2.3903026E2,1.13307625E2,1.3238573E2,7.9377174E1,2.6838806E2,5.3613922E1,1.8553288E2,8.167988E1,7.0417015E1,2.0161539E2,1.07784355E2,7.566451E1,7.759452E2,5.5906177E2,3.267681E2,1.0818121E3,6.5814064E1,2.2162889E2,1.07361496E2,2.488687E2,4.848975E2,2.5090505E3,4.2517868E2,2.7556917E3,2.1155654E3,5.1275037E2,7.1939484E2,2.51436E3,4.9136517E2,2.604663E2,5.270114E2,9.373845E2,2.2524292E2,2.5104602E2,4.1823E2,7.734828E1,1.1747645E2,5.9521744E1,7.009783E1,4.39882E2,5.7001152E1,2.0195433E2,3.5446967E2,1.1970107E2,1.518916E2,3.839892E2,7.568673E2,6.122726E2,4.064122E2,3.721679E2,6.2307613E1,9.575952E1,1.2260695E2,1.27036285E2,6.824201E1,1.174188E2,8.969066E1,7.9037285E1,1.2123031E2,2.9807794E2,8.5791046E1,3.8465372E2,8.125337E2,1.321607E2,6.525171E1,9.871783E2,5.11949E2,3.4935986E2,7.841717E2,1.3813962E2,9.851213E1,2.3257605E2,6.799012E1,1.84812E2,1.7929639E2,5.8577905E2,6.286198E2,2.3643271E2,1.88707E2,3.1160413E2,5.023584E2,8.8566077E2,5.1161588E2,5.284473E2],"tree_param":{"num_deleted":"0","num_feature":"8","num_nodes":"463","size_leaf_vector":"1"}},{"base_weights":[4.6548438E-1,4.9647987E-1,-1.3271581E0,5.1284695E-1,9.499044E-2,-8.265184E-1,-2.0858297E0,7.708074E-1,4.9427786E-1,2.111349E-1,-1.19888015E-1,-1.0340667E0,-5.7794336E-2,-2.1976178E0,1.5876475E-1,9.7704613E-1,3.263101E-1,5.094047E-1,4.4011772E-1,2.6275352E-1,7.258544E-2,-2.0643222E-1,4.756986E-1,-1.988977E0,-8.5679275E-1,-1.0276634E-2,-2.92359E-1,-1.9842211E0,-2.4866767E0,-3.289249E-1,7.313768E-1,1.0793312E0,8.425066E-1,7.1248317E-1,2.7132678E-1,5.403459E-1,4.723339E-1,3.465138E-1,4.755358E-1,3.7452772E-1,2.0948434E-1,1.4246833E-1,-5.9895985E-2,-1.23012446E-1,-5.309186E-1,6.7267865E-1,3.9662626E-1,-1.6076964E0,-2.327266E0,-1.9781126E0,-7.093275E-1,3.8839713E-1,-2.6839498E-1,-1.4616011E0,-2.3696973E0,-2.7391005E0,-2.154909E0,-1.20723896E-1,-7.64541E-1,3.264888E-2,9.2593145E-1,9.923545E-1,1.11109E0,1.0053487E0,7.554615E-1,5.457304E-1,1.0707322E0,1.742168E-1,4.382441E-1,5.5607134E-1,4.1918352E-1,5.337723E-1,4.3222457E-1,4.1123435E-1,1.7287636E-1,5.1732695E-1,4.200937E-1,2.4224186E-1,5.2219653E-1,2.7775598E-1,1.4175947E-1,-7.210888E-2,1.843846E-1,-1.0273575E-1,3.3170858E-1,-5.621657E-2,-4.5244417E-1,-6.8141776E-1,-2.6086152E-1,6.2436545E-1,8.5693866E-1,2.5794724E-1,4.8933303E-1,-3.236779E-1,-1.4687045E0,-1.6362895E0,-2.4572818E0,-2.888261E0,-9.5130175E-1,-5.924239E-2,-8.6362004E-1,6.822437E-1,1.8724659E-1,-1.0483051E-1,-4.2979953E-1,-1.1589509E0,-1.7867746E0,-2.4768186E0,-1.3093582E0,-2.7844543E0,-2.55368E0,-2.2553356E0,-1.6014043E0,1.0790955E-3,-2.0028569E-2,-5.9057243E-2,-9.710253E-2,9.908735E-1,6.7049414E-2,1.1191589E0,7.9478484E-1,1.1218576E0,9.0647334E-1,1.0743148E0,8.6383724E-1,8.4430206E-1,6.3688767E-1,8.255264E-1,1.3918374E-1,1.1080756E0,9.677843E-1,-1.026017E-2,3.0434066E-1,8.0817646E-1,3.7296107E-1,4.2289394E-1,5.660862E-1,5.4932445E-1,3.9547533E-1,5.1403815E-1,5.8678967E-1,3.6008897E-1,5.503195E-1,3.7055865E-1,4.785266E-1,4.0448725E-1,6.533573E-2,4.9415278E-1,6.02951E-1,3.9288393E-1,5.2081585E-1,4.2289573E-1,-1.9352125E-1,4.7421438E-1,6.195365E-1,2.1637867E-1,3.6772552E-1,8.529526E-3,1.9319145E-1,1.394778E-1,-5.3137654E-1,1.3759214E-1,2.7584806E-1,-1.4399499E-1,1.01198226E-1,1.817134E-1,5.4904604E-1,1.0597083E-1,-1.4777273E-1,-3.0053273E-1,-6.506574E-1,-3.7623904E0,-5.3594714E-1,-7.159409E-2,-5.749117E-1,5.1954865E-1,7.058679E-1,7.0820916E-1,9.899692E-1,2.994969E-1,-7.613857E-2,3.974844E-1,5.280774E-1,-5.648492E-1,-1.7097772E0,-8.714159E-2,-1.9952903E0,-2.9915047E-1,-2.3768177E0,-2.6028192E0,-3.768913E-1,-4.9995545E-1,-1.3203323E0,1.3790533E-1,-2.3719956E-1,-2.041198E0,-7.4612397E-1,8.276408E-1,5.6029445E-1,4.208171E-2,2.937399E-1,9.23153E-2,-2.6141375E-1,-5.6939006E-1,-2.503964E-1,-7.474094E-1,-1.432935E0,-1.62993E0,-2.7428224E0,-2.2816434E0,-2.7269428E0,-6.8260565E-2,-1.4054977E0,-2.8501828E0,-2.6196966E-1,-2.7086968E0,-2.3690026E0,-2.202269E0,-2.7363172E-1,-1.5101831E0,-2.1858187E-1,1.0665589E-1,9.1884814E-2,1.13760464E-1,1.0309038E-1,1.0659845E-1,6.59049E-2,1.1386185E-1,1.08066045E-1,1.06885135E-1,8.273535E-2,1.13428555E-1,9.9847645E-2,7.900692E-2,1.0281072E-1,8.737638E-2,4.4452246E-2,3.943653E-2,8.1517965E-2,7.8649454E-2,1.0952753E-1,-1.9079147E-2,3.272481E-2,9.556881E-2,1.1158606E-1,1.1277045E-1,9.04816E-2,-2.1048063E-2,5.93628E-2,5.008435E-2,-6.910234E-3,1.0124477E-1,7.165072E-2,2.5615284E-2,4.950657E-2,4.68696E-2,3.5394236E-2,5.8740426E-2,4.948988E-2,6.090793E-2,5.040602E-2,3.7531834E-2,4.916949E-2,6.489089E-2,5.0020862E-2,5.5051606E-2,6.905965E-2,4.181166E-2,2.1094505E-2,5.9714705E-2,3.924969E-2,2.783509E-2,4.6205364E-2,5.7402115E-2,2.7650038E-2,4.599108E-2,2.929916E-2,-3.8311213E-2,1.4254865E-2,3.9414313E-2,5.1948577E-2,5.3931054E-2,6.28187E-2,4.2044185E-2,3.5377778E-2,5.4291077E-2,4.4504873E-2,4.3790545E-2,1.703131E-2,1.0095301E-2,-9.587442E-2,4.0473726E-2,5.1712718E-2,4.0258743E-2,6.390317E-2,2.6471049E-2,3.87667E-3,2.1538766E-2,4.1272786E-2,2.1451233E-2,-4.300114E-2,5.300586E-3,3.0272616E-2,4.2136144E-2,6.6413316E-3,-2.170035E-2,-1.10363744E-1,1.6774775E-2,-5.410414E-2,3.9585732E-2,2.0176021E-2,-3.4087573E-3,-2.1085594E-2,-1.211984E-2,2.7350485E-2,3.016368E-2,1.5362147E-3,6.9574825E-2,4.9733903E-2,-6.2285843E-3,4.368655E-2,-8.2170635E-2,-5.137018E-3,-5.0522905E-2,-2.123954E-2,-9.12899E-2,-4.4041313E-2,-2.867253E-1,-4.1793832E-1,-2.4874015E-2,-8.590412E-2,-4.4964838E-1,1.2837163E-2,2.2318846E-2,-1.180619E-1,3.903609E-2,6.023862E-2,6.465473E-2,7.3401935E-2,8.3535485E-2,5.3824402E-2,1.0691402E-1,8.7389074E-2,3.6670957E-2,2.2990625E-2,-2.2822766E-2,3.4238826E-3,1.6733905E-2,4.613496E-2,4.8940286E-2,5.487097E-2,-1.47742E-1,-2.8663674E-2,-4.5356742E-1,-1.5587735E-1,-1.61033E-1,-2.442381E-1,-2.4383615E-1,-2.0471652E-1,-2.7554694E-1,-2.1581988E-1,-9.048886E-2,-2.633669E-2,-2.0025782E-1,-1.0730696E-1,5.1559515E-2,1.1745227E-2,-1.7920604E-2,-6.623506E-2,-1.1814486E-1,-3.2645038E-1,-6.856078E-2,-2.6061735E-1,9.932541E-2,7.532018E-2,4.8730772E-2,7.022191E-2,1.7988047E-2,-1.1651194E-2,2.4244418E-2,4.8442494E-2,7.1379417E-3,2.7630562E-2,-3.0803194E-2,1.646455E-2,-9.149154E-2,-5.136783E-2,-5.5834364E-2,-1.5005133E-2,-1.2452228E-1,-5.3488072E-2,-1.1048438E-1,-2.9334393E-1,-1.0674069E-1,-1.888217E-1,-3.03627E-1,-2.5127465E-1,-1.6531268E-1,-2.3591821E-1,-3.134789E-1,-2.696471E-1,-1.4827476E-1,-9.672078E-2,-2.7740192E-1,-2.9525378E-1,-2.4990259E-1,-3.272146E-1,-1.8697105E-1,-2.44993E-1,-2.5249884E-1,-2.1346717E-1,-1.7727482E-1,-1.3707386E-1],"categories":[],"categories_nodes":[],"categories_segments":[],"categories_sizes":[],"default_left":[0,0,0,0,0,0,0,0,0,0,0,0,0,0,0,0,0,0,0,0,0,0,0,0,0,0,0,0,0,0,0,0,0,0,0,0,0,0,0,0,0,0,0,0,0,0,0,0,0,0,0,0,0,0,0,0,0,0,0,0,0,0,0,0,0,0,0,0,0,0,0,0,0,0,0,0,0,0,0,0,0,0,0,0,0,0,0,0,0,0,0,0,0,0,0,0,0,0,0,0,0,0,0,0,0,0,0,0,0,0,0,0,0,0,0,0,0,0,0,0,0,0,0,0,0,0,0,0,0,0,0,0,0,0,0,0,0,0,0,0,0,0,0,0,0,0,0,0,0,0,0,0,0,0,0,0,0,0,0,0,0,0,0,0,0,0,0,0,0,0,0,0,0,0,0,0,0,0,0,0,0,0,0,0,0,0,0,0,0,0,0,0,0,0,0,0,0,0,0,0,0,0,0,0,0,0,0,0,0,0,0,0,0,0,0,0,0,0,0,0,0,0,0,0,0,0,0,0,0,0,0,0,0,0,0,0,0,0,0,0,0,0,0,0,0,0,0,0,0,0,0,0,0,0,0,0,0,0,0,0,0,0,0,0,0,0,0,0,0,0,0,0,0,0,0,0,0,0,0,0,0,0,0,0,0,0,0,0,0,0,0,0,0,0,0,0,0,0,0,0,0,0,0,0,0,0,0,0,0,0,0,0,0,0,0,0,0,0,0,0,0,0,0,0,0,0,0,0,0,0,0,0,0,0,0,0,0,0,0,0,0,0,0,0,0,0,0,0,0,0,0,0,0,0,0,0,0,0,0,0,0,0,0,0,0,0,0,0,0,0,0,0,0,0,0,0,0,0,0,0,0,0,0,0,0,0,0,0,0,0,0,0,0,0,0,0,0,0,0,0,0,0,0,0,0,0,0,0,0,0,0,0,0],"id":3,"left_children":[1,3,5,7,9,11,13,15,17,19,21,23,25,27,29,31,33,35,37,39,41,43,45,47,49,51,-1,53,55,57,59,61,63,65,67,69,71,73,75,77,79,81,83,85,87,89,91,93,95,97,99,101,103,105,107,109,111,113,115,-1,117,119,121,123,125,127,129,131,133,135,137,139,141,143,145,147,149,151,153,155,157,159,161,163,165,167,169,171,173,175,177,179,181,-1,183,185,187,189,191,193,195,197,199,201,203,205,207,209,211,213,215,217,219,-1,-1,-1,-1,221,-1,223,225,227,229,231,233,235,237,239,241,243,245,247,249,251,253,255,257,259,261,263,265,267,269,271,273,275,277,279,281,283,285,287,289,291,293,295,297,299,301,303,305,307,309,311,313,315,317,319,321,323,325,327,329,331,333,335,337,339,341,343,345,347,349,351,353,-1,355,-1,357,359,-1,361,363,365,367,369,371,373,375,377,379,381,383,385,387,389,391,393,395,397,399,-1,401,403,-1,405,407,409,-1,411,-1,-1,-1,-1,-1,-1,-1,-1,-1,-1,-1,-1,-1,-1,-1,-1,-1,-1,-1,-1,-1,-1,-1,-1,-1,-1,-1,-1,-1,-1,-1,-1,-1,-1,-1,-1,-1,-1,-1,-1,-1,-1,-1,-1,-1,-1,-1,-1,-1,-1,-1,-1,-1,-1,-1,-1,-1,-1,-1,-1,-1,-1,-1,-1,-1,-1,-1,-1,-1,-1,-1,-1,-1,-1,-1,-1,-1,-1,-1,-1,-1,-1,-1,-1,-1,-1,-1,-1,-1,-1,-1,-1,-1,-1,-1,-1,-1,-1,-1,-1,-1,-1,-1,-1,-1,-1,-1,-1,-1,-1,-1,-1,-1,-1,-1,-1,-1,-1,-1,-1,-1,-1,-1,-1,-1,-1,-1,-1,-1,-1,-1,-1,-1,-1,-1,-1,-1,-1,-1,-1,-1,-1,-1,-1,-1,-1,-1,-1,-1,-1,-1,-1,-1,-1,-1,-1,-1,-1,-1,-1,-1,-1,-1,-1,-1,-1,-1,-1,-1,-1,-1,-1,-1,-1,-1,-1,-1,-1,-1,-1,-1,-1,-1,-1,-1,-1,-1,-1,-1,-1,-1,-1,-1],"loss_changes":[1.3376581E5,1.55506875E4,1.5539758E4,1.0891375E4,2.3134053E3,3.9332031E3,4.0818672E3,1.3996719E4,1.7375312E3,4.3031372E2,1.6765363E3,3.2843086E3,7.1380817E2,9.5083594E2,2.1599826E2,1.4343281E3,1.0273223E3,1.9015312E3,1.5351094E3,2.6094165E2,1.5123383E2,7.686367E2,6.400989E1,3.8819336E2,2.706125E3,5.3083984E2,0E0,1.7933203E3,5.44875E2,3.781278E1,2.7715363E1,1.6255469E2,6.377988E2,3.596853E2,6.865918E2,1.7216875E3,1.8585625E3,1.4285918E3,7.7821875E2,2.762478E2,1.3724512E2,9.61962E1,9.467622E1,4.971032E2,2.3585266E2,9.975159E0,3.7763306E1,3.1944434E2,1.4042676E2,1.7752476E3,1.4515835E3,1.19701294E2,8.261929E1,3.707788E2,5.7959766E2,2.4267578E1,1.546123E2,2.9734945E0,4.274803E0,0E0,3.3118286E0,3.9634766E2,9.4578125E1,1.5219043E2,3.0875586E2,4.682246E2,6.2875977E0,6.429277E2,3.7596924E2,1.066625E3,3.2011523E2,3.1140625E2,3.8875938E3,2.5331055E2,8.5979736E2,3.798164E2,3.955547E2,5.877102E2,3.0926392E1,8.15647E1,1.021488E2,1.6996524E2,3.825125E1,4.2808228E1,1.804282E1,2.7895227E2,1.144787E2,1.6690782E3,1.2358261E2,7.6554565E0,4.098297E0,1.644284E1,6.0718384E0,0E0,2.8688672E2,6.900159E1,5.097412E1,2.4359082E2,1.484873E2,9.746481E1,1.6167891E3,1.4136993E1,1.8613628E1,4.8073677E1,3.9317505E1,2.2050513E2,2.6911328E2,2.2124023E2,2.7538635E1,2.4876953E1,1.4921875E1,5.5407227E1,2.0187012E1,0E0,0E0,0E0,0E0,5.0354004E-2,0E0,1.4544922E1,2.2759863E2,2.7234375E1,2.705127E1,4.682422E1,6.1545654E1,1.9727148E2,5.436382E2,2.4814331E1,1.042962E2,5.9191895E-1,4.1908264E0,1.3396812E3,1.1525249E3,4.3021362E1,1.8878662E2,1.7652832E2,1.1287188E3,4.2959473E1,1.701543E2,4.0465234E2,3.0389844E2,2.4518945E3,1.2787227E3,4.8686328E2,6.7287695E2,6.7505005E1,8.163869E2,3.8176562E2,6.518457E1,1.2237891E2,5.1168945E1,1.9932434E1,4.9321292E2,1.3152527E1,9.063477E0,7.5459015E1,4.1006836E1,3.75248E2,1.6513565E2,2.4639095E1,9.899892E1,1.2125273E2,2.6833237E1,3.1080711E1,3.285094E1,6.594077E0,1.3740463E0,3.7741922E2,7.800459E2,3.882379E1,9.06543E1,5.0703857E1,3.3028363E2,1.1498524E3,3.7827243E2,4.201332E0,4.029541E-1,2.1012726E0,2.1930695E-1,4.837509E0,2.217681E0,7.679779E0,7.196655E-1,7.057703E1,4.3774805E2,0E0,2.6109802E1,0E0,1.8932617E1,4.594336E1,0E0,3.850537E1,8.085571E1,1.01220665E1,3.5878273E1,1.1115913E3,1.195519E3,3.8566895E0,4.328842E0,1.1188841E1,6.6789627E0,2.6372242E0,1.7286446E1,1.6573639E1,2.1278168E1,8.264917E1,5.769949E2,2.2606738E2,9.632202E0,1.23944336E2,1.6863281E1,0E0,1.2417358E1,8.3671875E0,0E0,3.8872314E1,9.485718E0,4.2009766E1,0E0,1.1641785E1,0E0,0E0,0E0,0E0,0E0,0E0,0E0,0E0,0E0,0E0,0E0,0E0,0E0,0E0,0E0,0E0,0E0,0E0,0E0,0E0,0E0,0E0,0E0,0E0,0E0,0E0,0E0,0E0,0E0,0E0,0E0,0E0,0E0,0E0,0E0,0E0,0E0,0E0,0E0,0E0,0E0,0E0,0E0,0E0,0E0,0E0,0E0,0E0,0E0,0E0,0E0,0E0,0E0,0E0,0E0,0E0,0E0,0E0,0E0,0E0,0E0,0E0,0E0,0E0,0E0,0E0,0E0,0E0,0E0,0E0,0E0,0E0,0E0,0E0,0E0,0E0,0E0,0E0,0E0,0E0,0E0,0E0,0E0,0E0,0E0,0E0,0E0,0E0,0E0,0E0,0E0,0E0,0E0,0E0,0E0,0E0,0E0,0E0,0E0,0E0,0E0,0E0,0E0,0E0,0E0,0E0,0E0,0E0,0E0,0E0,0E0,0E0,0E0,0E0,0E0,0E0,0E0,0E0,0E0,0E0,0E0,0E0,0E0,0E0,0E0,0E0,0E0,0E0,0E0,0E0,0E0,0E0,0E0,0E0,0E0,0E0,0E0,0E0,0E0,0E0,0E0,0E0,0E0,0E0,0E0,0E0,0E0,0E0,0E0,0E0,0E0,0E0,0E0,0E0,0E0,0E0,0E0,0E0,0E0,0E0,0E0,0E0,0E0,0E0,0E0,0E0,0E0,0E0,0E0,0E0,0E0,0E0,0E0,0E0,0E0,0E0,0E0,0E0,0E0,0E0,0E0,0E0,0E0,0E0,0E0,0E0,0E0,0E0,0E0,0E0,0E0,0E0,0E0],"parents":[2147483647,0,0,1,1,2,2,3,3,4,4,5,5,6,6,7,7,8,8,9,9,10,10,11,11,12,12,13,13,14,14,15,15,16,16,17,17,18,18,19,19,20,20,21,21,22,22,23,23,24,24,25,25,27,27,28,28,29,29,30,30,31,31,32,32,33,33,34,34,35,35,36,36,37,37,38,38,39,39,40,40,41,41,42,42,43,43,44,44,45,45,46,46,47,47,48,48,49,49,50,50,51,51,52,52,53,53,54,54,55,55,56,56,57,57,58,58,60,60,61,61,62,62,63,63,64,64,65,65,66,66,67,67,68,68,69,69,70,70,71,71,72,72,73,73,74,74,75,75,76,76,77,77,78,78,79,79,80,80,81,81,82,82,83,83,84,84,85,85,86,86,87,87,88,88,89,89,90,90,91,91,92,92,94,94,95,95,96,96,97,97,98,98,99,99,100,100,101,101,102,102,103,103,104,104,105,105,106,106,107,107,108,108,109,109,110,110,111,111,112,112,117,117,119,119,120,120,121,121,122,122,123,123,124,124,125,125,126,126,127,127,128,128,129,129,130,130,131,131,132,132,133,133,134,134,135,135,136,136,137,137,138,138,139,139,140,140,141,141,142,142,143,143,144,144,145,145,146,146,147,147,148,148,149,149,150,150,151,151,152,152,153,153,154,154,155,155,156,156,157,157,158,158,159,159,160,160,161,161,162,162,163,163,164,164,165,165,166,166,167,167,168,168,169,169,170,170,171,171,172,172,173,173,174,174,175,175,176,176,177,177,178,178,179,179,180,180,181,181,182,182,183,183,184,184,186,186,188,188,189,189,191,191,192,192,193,193,194,194,195,195,196,196,197,197,198,198,199,199,200,200,201,201,202,202,203,203,204,204,205,205,206,206,207,207,208,208,209,209,210,210,212,212,213,213,215,215,216,216,217,217,219,219],"right_children":[2,4,6,8,10,12,14,16,18,20,22,24,26,28,30,32,34,36,38,40,42,44,46,48,50,52,-1,54,56,58,60,62,64,66,68,70,72,74,76,78,80,82,84,86,88,90,92,94,96,98,100,102,104,106,108,110,112,114,116,-1,118,120,122,124,126,128,130,132,134,136,138,140,142,144,146,148,150,152,154,156,158,160,162,164,166,168,170,172,174,176,178,180,182,-1,184,186,188,190,192,194,196,198,200,202,204,206,208,210,212,214,216,218,220,-1,-1,-1,-1,222,-1,224,226,228,230,232,234,236,238,240,242,244,246,248,250,252,254,256,258,260,262,264,266,268,270,272,274,276,278,280,282,284,286,288,290,292,294,296,298,300,302,304,306,308,310,312,314,316,318,320,322,324,326,328,330,332,334,336,338,340,342,344,346,348,350,352,354,-1,356,-1,358,360,-1,362,364,366,368,370,372,374,376,378,380,382,384,386,388,390,392,394,396,398,400,-1,402,404,-1,406,408,410,-1,412,-1,-1,-1,-1,-1,-1,-1,-1,-1,-1,-1,-1,-1,-1,-1,-1,-1,-1,-1,-1,-1,-1,-1,-1,-1,-1,-1,-1,-1,-1,-1,-1,-1,-1,-1,-1,-1,-1,-1,-1,-1,-1,-1,-1,-1,-1,-1,-1,-1,-1,-1,-1,-1,-1,-1,-1,-1,-1,-1,-1,-1,-1,-1,-1,-1,-1,-1,-1,-1,-1,-1,-1,-1,-1,-1,-1,-1,-1,-1,-1,-1,-1,-1,-1,-1,-1,-1,-1,-1,-1,-1,-1,-1,-1,-1,-1,-1,-1,-1,-1,-1,-1,-1,-1,-1,-1,-1,-1,-1,-1,-1,-1,-1,-1,-1,-1,-1,-1,-1,-1,-1,-1,-1,-1,-1,-1,-1,-1,-1,-1,-1,-1,-1,-1,-1,-1,-1,-1,-1,-1,-1,-1,-1,-1,-1,-1,-1,-1,-1,-1,-1,-1,-1,-1,-1,-1,-1,-1,-1,-1,-1,-1,-1,-1,-1,-1,-1,-1,-1,-1,-1,-1,-1,-1,-1,-1,-1,-1,-1,-1,-1,-1,-1,-1,-1,-1,-1,-1,-1,-1,-1,-1,-1],"split_conditions":[-1.2288413E-4,-1.452436E-4,-1.0963329E-4,-3.7594663E-4,-1.3268048E-4,5.8630235E-3,8.703153E-3,4.3703043E-3,-2.0386495E-4,-1.6273042E-4,8.505004E-3,-1.8889517E-4,-3.150923E-4,-1.463954E-4,-1.5563448E-4,-3.8703455E-4,-4.1087216E-4,2.4520565E-4,2.4428175E-4,-3.573966E-3,-1.3737562E-4,-1.4148054E-4,-3.3062727E-3,-1.1780816E-4,-5.8318996E-3,-2.2093662E-4,-2.92359E-1,-1.9414329E-4,-2.1539317E-4,-1.9783892E-4,-1.5193885E-4,-4.9690967E-3,-3.3365338E-4,-3.1433292E-3,-7.690068E-4,-2.2386642E-4,-3.1505286E-4,4.9456605E-3,-1.735393E-4,4.9383305E-3,-1.3949432E-4,-7.571447E-3,7.923769E-3,-1.463954E-4,1.6094348E-3,-2.551212E-4,2.455752E-4,-6.3556475E-3,-1.5164353E-4,5.00438E-3,-3.8649368E-3,-2.9687465E-3,-1.1780816E-4,-1.5193885E-4,2.26993E-3,-2.3294742E-4,5.9687025E-3,-2.282055E-3,-1.5604475E-3,3.264888E-2,-2.5050167E-4,4.282247E-3,3.8154887E-3,2.798326E-3,4.072748E-3,-4.180703E-4,-2.662081E-4,-3.908465E-4,-4.0160352E-4,-3.4665118E-4,-3.1794695E-4,4.5024035E-3,-2.5118137E-4,5.255368E-3,-5.4050237E-3,6.510309E-3,-1.7318873E-4,-7.815575E-4,-1.3737562E-4,2.4797738E-4,-6.0787285E-3,5.7603787E-3,5.7603787E-3,6.8311514E-3,2.4890128E-4,-3.4226612E-3,-1.2663999E-4,-6.588424E-3,-5.0131365E-4,2.455752E-4,-1.298539E-4,-1.8859984E-4,2.4797738E-4,-3.236779E-1,-5.540929E-3,-5.657317E-3,-6.4603966E-3,-7.3333094E-3,-1.1780816E-4,-1.1780816E-4,1.0350124E-3,-3.4226612E-3,2.455752E-4,-1.7751295E-4,2.4797738E-4,-3.8649368E-3,-2.2925179E-4,-1.679831E-3,-1.6273042E-4,2.4890574E-4,-2.6969935E-3,5.969878E-3,-1.6273042E-4,1.0790955E-3,-2.0028569E-2,-5.9057243E-2,-9.710253E-2,-3.085135E-3,6.7049414E-2,3.8981654E-3,-4.0160352E-4,-3.930521E-4,-3.982624E-4,3.444251E-3,2.885587E-3,2.8643755E-3,-4.916257E-3,-3.4575777E-3,-3.801441E-4,-3.085135E-3,-4.180703E-4,-2.794164E-3,-3.085135E-3,5.00438E-3,2.4797738E-4,-3.191662E-4,5.625245E-3,-3.085135E-3,6.6688275E-3,-3.7051024E-4,2.5167302E-4,2.4982519E-4,6.206481E-3,-1.8245362E-4,-1.6987728E-4,-6.3429265E-3,2.387383E-4,-5.5758455E-3,-1.9474901E-4,-1.592255E-4,-1.502881E-4,-1.6764528E-4,-2.3479522E-4,5.929073E-3,5.1893187E-3,4.9383305E-3,-1.6302805E-3,4.282247E-3,4.1658585E-3,-1.4702398E-4,-1.8981907E-4,1.3259833E-3,6.714763E-3,-5.692234E-3,2.4705348E-4,-1.3870881E-4,-6.0181213E-3,5.00438E-3,-3.150923E-4,-2.791428E-4,-2.5789294E-4,-2.055255E-4,2.0126745E-3,2.0849914E-3,2.1642507E-3,-1.298539E-4,-1.298539E-4,-2.1354535E-4,-2.1539317E-4,-2.5050167E-4,-1.9813425E-4,-2.77295E-4,2.4890574E-4,-6.1112316E-3,-4.08203E-4,-8.714159E-2,-6.659964E-3,-2.9915047E-1,2.5167302E-4,4.6345023E-3,-3.768913E-1,5.374257E-3,5.3214175E-3,2.4058612E-4,-4.13263E-3,-2.7544718E-4,4.436354E-3,-3.923131E-3,-1.5563448E-4,-1.1780816E-4,-1.584062E-4,2.5259692E-4,2.5259692E-4,-1.8704735E-4,6.365E-3,-5.180125E-3,-4.4803303E-3,-3.9813253E-3,-4.9822647E-3,-8.443301E-3,-6.7630066E-3,-6.8260565E-2,2.5167302E-4,-2.643603E-4,-2.6196966E-1,-5.6428015E-3,3.749439E-3,2.338562E-3,-2.7363172E-1,6.1536413E-3,-2.1858187E-1,1.0665589E-1,9.1884814E-2,1.13760464E-1,1.0309038E-1,1.0659845E-1,6.59049E-2,1.1386185E-1,1.08066045E-1,1.06885135E-1,8.273535E-2,1.13428555E-1,9.9847645E-2,7.900692E-2,1.0281072E-1,8.737638E-2,4.4452246E-2,3.943653E-2,8.1517965E-2,7.8649454E-2,1.0952753E-1,-1.9079147E-2,3.272481E-2,9.556881E-2,1.1158606E-1,1.1277045E-1,9.04816E-2,-2.1048063E-2,5.93628E-2,5.008435E-2,-6.910234E-3,1.0124477E-1,7.165072E-2,2.5615284E-2,4.950657E-2,4.68696E-2,3.5394236E-2,5.8740426E-2,4.948988E-2,6.090793E-2,5.040602E-2,3.7531834E-2,4.916949E-2,6.489089E-2,5.0020862E-2,5.5051606E-2,6.905965E-2,4.181166E-2,2.1094505E-2,5.9714705E-2,3.924969E-2,2.783509E-2,4.6205364E-2,5.7402115E-2,2.7650038E-2,4.599108E-2,2.929916E-2,-3.8311213E-2,1.4254865E-2,3.9414313E-2,5.1948577E-2,5.3931054E-2,6.28187E-2,4.2044185E-2,3.5377778E-2,5.4291077E-2,4.4504873E-2,4.3790545E-2,1.703131E-2,1.0095301E-2,-9.587442E-2,4.0473726E-2,5.1712718E-2,4.0258743E-2,6.390317E-2,2.6471049E-2,3.87667E-3,2.1538766E-2,4.1272786E-2,2.1451233E-2,-4.300114E-2,5.300586E-3,3.0272616E-2,4.2136144E-2,6.6413316E-3,-2.170035E-2,-1.10363744E-1,1.6774775E-2,-5.410414E-2,3.9585732E-2,2.0176021E-2,-3.4087573E-3,-2.1085594E-2,-1.211984E-2,2.7350485E-2,3.016368E-2,1.5362147E-3,6.9574825E-2,4.9733903E-2,-6.2285843E-3,4.368655E-2,-8.2170635E-2,-5.137018E-3,-5.0522905E-2,-2.123954E-2,-9.12899E-2,-4.4041313E-2,-2.867253E-1,-4.1793832E-1,-2.4874015E-2,-8.590412E-2,-4.4964838E-1,1.2837163E-2,2.2318846E-2,-1.180619E-1,3.903609E-2,6.023862E-2,6.465473E-2,7.3401935E-2,8.3535485E-2,5.3824402E-2,1.0691402E-1,8.7389074E-2,3.6670957E-2,2.2990625E-2,-2.2822766E-2,3.4238826E-3,1.6733905E-2,4.613496E-2,4.8940286E-2,5.487097E-2,-1.47742E-1,-2.8663674E-2,-4.5356742E-1,-1.5587735E-1,-1.61033E-1,-2.442381E-1,-2.4383615E-1,-2.0471652E-1,-2.7554694E-1,-2.1581988E-1,-9.048886E-2,-2.633669E-2,-2.0025782E-1,-1.0730696E-1,5.1559515E-2,1.1745227E-2,-1.7920604E-2,-6.623506E-2,-1.1814486E-1,-3.2645038E-1,-6.856078E-2,-2.6061735E-1,9.932541E-2,7.532018E-2,4.8730772E-2,7.022191E-2,1.7988047E-2,-1.1651194E-2,2.4244418E-2,4.8442494E-2,7.1379417E-3,2.7630562E-2,-3.0803194E-2,1.646455E-2,-9.149154E-2,-5.136783E-2,-5.5834364E-2,-1.5005133E-2,-1.2452228E-1,-5.3488072E-2,-1.1048438E-1,-2.9334393E-1,-1.0674069E-1,-1.888217E-1,-3.03627E-1,-2.5127465E-1,-1.6531268E-1,-2.3591821E-1,-3.134789E-1,-2.696471E-1,-1.4827476E-1,-9.672078E-2,-2.7740192E-1,-2.9525378E-1,-2.4990259E-1,-3.272146E-1,-1.8697105E-1,-2.44993E-1,-2.5249884E-1,-2.1346717E-1,-1.7727482E-1,-1.3707386E-1],"split_indices":[7,7,7,7,7,1,1,1,7,6,1,4,2,4,4,7,7,3,3,2,7,6,2,7,2,6,0,6,6,6,4,1,6,2,2,7,7,2,7,1,7,1,1,4,1,6,3,2,6,1,2,2,7,4,1,6,1,2,2,0,6,2,1,1,2,7,6,7,7,7,6,1,7,1,1,1,4,1,7,3,1,2,2,2,3,2,7,2,2,3,7,6,3,0,2,2,2,2,7,7,2,2,3,6,3,2,6,1,6,3,1,2,6,0,0,0,0,2,0,2,7,7,7,2,2,1,1,2,4,2,7,2,2,1,3,4,1,2,1,7,3,3,1,7,7,1,3,2,7,7,7,4,6,1,1,1,2,2,2,6,4,2,2,2,3,6,2,1,2,6,6,4,2,1,1,7,7,6,6,6,4,6,3,2,2,0,1,0,3,1,0,1,1,3,2,6,1,2,4,7,4,3,3,4,1,2,1,2,2,1,2,0,3,6,0,1,1,2,0,1,0,0,0,0,0,0,0,0,0,0,0,0,0,0,0,0,0,0,0,0,0,0,0,0,0,0,0,0,0,0,0,0,0,0,0,0,0,0,0,0,0,0,0,0,0,0,0,0,0,0,0,0,0,0,0,0,0,0,0,0,0,0,0,0,0,0,0,0,0,0,0,0,0,0,0,0,0,0,0,0,0,0,0,0,0,0,0,0,0,0,0,0,0,0,0,0,0,0,0,0,0,0,0,0,0,0,0,0,0,0,0,0,0,0,0,0,0,0,0,0,0,0,0,0,0,0,0,0,0,0,0,0,0,0,0,0,0,0,0,0,0,0,0,0,0,0,0,0,0,0,0,0,0,0,0,0,0,0,0,0,0,0,0,0,0,0,0,0,0,0,0,0,0,0,0,0,0,0,0,0,0,0,0,0,0,0,0,0,0,0,0,0,0],"split_type":[0,0,0,0,0,0,0,0,0,0,0,0,0,0,0,0,0,0,0,0,0,0,0,0,0,0,0,0,0,0,0,0,0,0,0,0,0,0,0,0,0,0,0,0,0,0,0,0,0,0,0,0,0,0,0,0,0,0,0,0,0,0,0,0,0,0,0,0,0,0,0,0,0,0,0,0,0,0,0,0,0,0,0,0,0,0,0,0,0,0,0,0,0,0,0,0,0,0,0,0,0,0,0,0,0,0,0,0,0,0,0,0,0,0,0,0,0,0,0,0,0,0,0,0,0,0,0,0,0,0,0,0,0,0,0,0,0,0,0,0,0,0,0,0,0,0,0,0,0,0,0,0,0,0,0,0,0,0,0,0,0,0,0,0,0,0,0,0,0,0,0,0,0,0,0,0,0,0,0,0,0,0,0,0,0,0,0,0,0,0,0,0,0,0,0,0,0,0,0,0,0,0,0,0,0,0,0,0,0,0,0,0,0,0,0,0,0,0,0,0,0,0,0,0,0,0,0,0,0,0,0,0,0,0,0,0,0,0,0,0,0,0,0,0,0,0,0,0,0,0,0,0,0,0,0,0,0,0,0,0,0,0,0,0,0,0,0,0,0,0,0,0,0,0,0,0,0,0,0,0,0,0,0,0,0,0,0,0,0,0,0,0,0,0,0,0,0,0,0,0,0,0,0,0,0,0,0,0,0,0,0,0,0,0,0,0,0,0,0,0,0,0,0,0,0,0,0,0,0,0,0,0,0,0,0,0,0,0,0,0,0,0,0,0,0,0,0,0,0,0,0,0,0,0,0,0,0,0,0,0,0,0,0,0,0,0,0,0,0,0,0,0,0,0,0,0,0,0,0,0,0,0,0,0,0,0,0,0,0,0,0,0,0,0,0,0,0,0,0,0,0,0,0,0,0,0,0,0,0,0,0,0,0],"sum_hessian":[2.4074138E6,2.366497E6,4.091692E4,2.273803E6,9.269385E4,2.465164E4,1.6265279E4,1.5268411E5,2.121119E6,6.017081E4,3.2523045E4,1.9410615E4,5.2410264E3,1.5493665E4,7.716134E2,1.0429289E5,4.839122E4,1.6580252E6,4.6309372E5,4.3837582E4,1.6333227E4,2.8397309E4,4.125737E3,3.037653E3,1.6372962E4,5.1565293E3,8.4496735E1,8.917917E3,6.575749E3,4.1693683E2,3.546766E2,5.9244566E4,4.5048324E4,6.0297256E3,4.2361496E4,9.037212E5,7.5430406E5,1.271277E5,3.3596603E5,1.4147014E4,2.9690568E4,1.069279E4,5.6404365E3,2.259095E4,5.806359E3,1.1796237E3,2.946113E3,1.4307867E3,1.6068663E3,1.9015138E3,1.4471448E4,2.0263103E3,3.1302192E3,3.7875857E3,5.130331E3,3.7303071E3,2.8454417E3,2.829697E2,1.3396713E2,1.1598277E2,2.3869382E2,1.5855043E4,4.3389523E4,1.5688345E4,2.9359979E4,4.1162666E3,1.9134589E3,2.678211E4,1.5579385E4,7.999001E5,1.0382105E5,2.9793022E5,4.5637388E5,9.260814E4,3.451956E4,1.9156205E5,1.4440397E5,7.4635747E3,6.683439E3,1.4784055E4,1.4906514E4,1.7473022E3,8.945488E3,5.084908E3,5.555283E2,1.878355E4,3.8073992E3,3.7275327E3,2.0788262E3,9.380535E2,2.4157014E2,1.1819017E3,1.7642113E3,1.1072496E2,1.3200618E3,2.5662143E2,1.350245E3,1.0070595E3,8.944543E2,2.776121E3,1.1695327E4,8.2245386E2,1.2038564E3,1.5555264E3,1.5746929E3,1.9640969E3,1.8234888E3,4.658381E3,4.719503E2,2.9859316E3,7.443754E2,2.405854E3,4.395877E2,1.06986496E2,1.7598322E2,7.48034E1,5.916373E1,1.8801422E2,5.0679596E1,9.654146E3,6.200896E3,4.121609E4,2.173436E3,1.0543391E4,5.1449546E3,1.6780902E4,1.2579078E4,2.4376099E3,1.678657E3,1.39696E3,5.164988E2,1.1077884E4,1.5704227E4,2.3352263E3,1.3244159E4,5.594809E4,7.4395206E5,1.5995443E4,8.78256E4,2.1712334E5,8.080687E4,2.8331897E5,1.7305489E5,5.7723125E4,3.4885016E4,1.0944837E4,2.3574723E4,1.5076439E5,4.0797656E4,1.13694625E5,3.0709348E4,5.2762393E3,2.1873354E3,4.4806484E3,2.2027903E3,8.790545E3,5.99351E3,4.152082E3,1.0754432E4,1.1966819E3,5.506204E2,5.919561E3,3.0259268E3,4.2295034E3,8.5540497E2,3.297724E2,2.257559E2,6.7774536E3,1.2006097E4,2.1568765E3,1.6505228E3,1.6694218E2,3.5605906E3,1.297871E3,7.809551E2,4.135627E2,5.2449084E2,1.17040886E2,1.2452926E2,1.0512617E3,1.3064E2,5.26747E2,1.2374642E3,2.7865225E2,1.0414095E3,8.306774E1,1.735537E2,1.7201471E2,1.1782302E3,7.6353394E2,2.4352556E2,4.0341205E2,4.9104224E2,1.3171536E3,1.4589677E3,1.0595774E3,1.0635749E4,3.725203E2,4.4993356E2,5.1002216E2,6.938343E2,6.8875775E2,8.6676855E2,8.843901E2,6.903028E2,7.864808E2,1.1776162E3,1.5688204E3,2.5466832E2,2.6222937E3,2.036087E3,6.3843246E1,4.0810706E2,2.1227761E3,8.631556E2,3.9725482E2,3.4712064E2,2.1718167E3,2.3403746E2,3.833368E2,5.625089E1,8.494475E1,1.0306947E2,7.975363E3,1.6787842E3,2.0660615E3,4.1348345E3,2.9277908E4,1.1938181E4,7.0796533E2,1.4654706E3,5.879838E3,4.6635522E3,3.5545393E3,1.5904153E3,1.5628013E4,1.1528887E3,5.330905E3,7.248173E3,2.1329006E3,3.047091E2,6.0939905E2,1.0692579E3,7.3912254E1,1.3230477E3,1.4113925E2,3.7535953E2,8.320016E3,2.7578682E3,1.0289585E4,5.414641E3,7.2023816E2,1.614988E3,6.770465E3,6.473694E3,3.3613844E4,2.2334242E4,5.725013E5,1.714507E5,6.888821E3,9.106622E3,7.261783E4,1.5207776E4,2.0188773E4,1.9693458E5,5.9886727E4,2.092014E4,2.0396158E5,7.935739E4,1.3345475E5,3.9600152E4,2.8751584E4,2.8971541E4,2.3686799E4,1.1198218E4,7.308646E3,3.636191E3,3.4622468E3,2.0112475E4,3.047429E4,1.2029011E5,1.1590639E4,2.9207018E4,6.66893E4,4.700533E4,2.3771137E4,6.9382104E3,4.979593E3,2.9664636E2,1.580134E3,6.072015E2,1.7147858E3,2.7658628E3,1.8340822E2,2.0193821E3,6.9097676E3,1.8807775E3,1.3681064E3,4.6254033E3,2.8254695E3,1.3266128E3,4.7178623E3,6.036569E3,2.4535034E2,9.513315E2,3.562776E2,1.943428E2,5.6684326E3,2.5112843E2,1.1533539E3,1.872573E3,1.6003405E3,2.629163E3,3.735542E2,4.8185077E2,1.9115479E2,1.386176E2,5.5587772E1,1.7016814E2,4.4934106E3,2.2840435E3,1.5015432E3,1.0504554E4,6.477543E2,1.5091222E3,7.329539E2,9.1756885E2,5.555694E1,1.11385254E2,1.8859177E3,1.6746729E3,5.518728E1,1.2426837E3,3.372348E2,4.4372028E2,1.6380933E2,2.4975339E2,1.7651181E2,3.4797903E2,6.4714836E1,5.232605E1,6.915309E1,5.5376175E1,5.3259576E2,5.18666E2,5.4490208E1,7.6149796E1,1.1520676E2,4.1154022E2,4.3910187E2,7.983624E2,6.409673E1,2.1455551E2,5.1352715E1,9.900568E2,9.572928E1,7.782441E1,9.874782E2,1.9075203E2,5.6452124E2,1.9901268E2,1.477337E2,2.5567834E2,1.2873589E2,3.6230634E2,6.64201E1,1.2507334E3,1.2850935E3,1.738741E2,6.2340735E2,4.3617004E2,1.0301947E4,3.3380243E2,1.1168914E2,2.6083115E2,3.00058E2,1.4987555E2,2.728308E2,2.3719133E2,5.485433E2,1.4529099E2,6.196383E2,6.911943E1,7.815325E2,8.523605E1,1.20656204E2,7.637339E2,1.685324E2,5.217704E2,2.33855E2,5.526258E2,9.6775006E2,2.0986613E2,4.9528082E2,1.0735396E3,1.06560295E2,1.4810802E2,2.9043112E2,2.3318625E3,1.3446667E2,1.9016204E3,3.449292E2,6.3177856E1,1.2332234E3,8.895527E2,2.9348004E2,1.0377477E2,5.1777264E1,2.9534335E2,3.6983267E2,1.8019839E3,1.2890462E2,2.5443219E2],"tree_param":{"num_deleted":"0","num_feature":"8","num_nodes":"413","size_leaf_vector":"1"}},{"base_weights":[4.3411136E-1,4.63677E-1,-1.1350546E0,4.8049283E-1,1.02416396E-1,-7.074511E-1,-1.7643174E0,7.364096E-1,4.6238047E-1,2.0399478E-1,-1.104488E-1,-1.4947292E0,-5.5124146E-1,-1.5526029E0,-2.0678911E0,5.899744E-1,1.019568E0,4.7818437E-1,4.1641068E-1,1.1018944E-1,2.5036892E-1,-4.4028595E-1,-3.0227687E-2,-1.1846582E0,-1.7650423E0,-3.5601294E-1,-1.1398365E0,-2.151377E0,-1.1776309E0,-1.7470168E0,-2.2739625E0,3.0444494E-1,8.824129E-1,1.082096E0,8.383175E-1,5.141574E-1,4.349638E-1,2.8823945E-1,4.4382614E-1,1.6333395E-1,-2.0795794E-2,3.3260238E-1,2.0323063E-1,-2.9652852E-1,-7.599784E-1,3.285482E-2,-3.925314E-1,-1.5888165E0,-9.459579E-1,-2.025818E0,-1.4487437E0,-7.117789E-1,-2.4517979E-1,-7.4564475E-1,-1.7904474E0,-2.2412174E0,-1.8778917E0,-9.939707E-1,-1.3974563E0,-1.6746709E0,-2.2529562E0,-2.219415E0,-2.455665E0,6.823167E-1,2.5246125E-1,1.0297767E0,7.304733E-1,1.1225806E0,1.0230317E0,5.905481E-1,9.3081135E-1,3.9313176E-1,5.222038E-1,5.0032866E-1,3.8700494E-1,3.6459127E-1,1.0979996E-1,4.7360435E-1,3.8570243E-1,2.3174454E-1,9.795698E-2,6.429611E-2,-1.0891705E-1,4.662371E-1,2.0633976E-1,2.2664346E-1,-7.1288325E-2,-9.754572E-2,-4.5157453E-1,-1.1415955E0,-5.807973E-1,1.6051508E-1,-1.0857969E-1,-2.6736137E-1,-5.523785E-1,-1.3183389E0,-1.9296203E0,-4.907976E-1,-1.0425051E0,-2.1382952E0,-1.7836334E0,-1.3097751E0,-1.8735061E0,-1.2462892E-1,-8.236463E-1,-6.094333E-2,-4.336363E-1,-3.5095873E-1,-9.083041E-1,-1.3865823E0,-2.1673973E0,-1.7489263E-1,-2.260259E0,-2.1290014E0,-1.6165509E0,-8.748949E-2,-1.3523278E0,-2.519716E-1,-1.0927845E0,-1.5796006E0,-2.2661574E0,-2.1229087E-1,-2.5664732E-1,-2.0576124E0,-2.295539E0,-2.5224683E0,-2.2607337E-1,5.1530373E-1,1.0393102E0,1.3540639E-1,3.773467E-1,1.1027532E0,8.847191E-1,8.626042E-1,4.5324495E-1,1.1044399E0,1.12946115E-1,9.168202E-1,1.0831481E0,7.022328E-1,4.7492045E-1,7.2704905E-1,1.0331945E0,3.7065473E-1,5.8480304E-1,5.743549E-1,4.9528253E-1,4.8612458E-1,5.6840247E-1,3.2773745E-1,5.0353104E-1,1.19712785E-1,3.8941997E-1,-4.68474E-2,3.367484E-1,4.4125253E-1,5.3247964E-1,3.5675374E-1,4.8054442E-1,1.6973658E-1,3.9728186E-1,1.4726107E-1,-2.4687941E-1,3.5471076E-1,-4.741375E-2,7.007206E-3,-1.6587644E0,4.2518967E-1,5.2114016E-1,-1.2329601E-1,3.4965944E-1,1.8983085E-1,4.531666E-1,-1.9887967E-1,8.605077E-2,-4.080419E-1,5.273946E-2,-2.4611808E-1,-2.402656E0,-8.373391E-1,-1.3005924E0,-1.9815345E-1,-6.493218E-1,4.5623976E-1,2.744501E-2,-1.8104773E-2,-3.9741867E0,-1.6946334E-1,-4.8033515E-1,-3.8146934E-1,-8.055775E-1,-6.9231445E-1,-1.636463E0,-1.7319173E0,-2.6060367E-1,-8.032717E-2,1.2841162E-3,-7.946296E-1,-1.7880219E0,-2.265588E-1,-2.0696783E0,-1.5938267E0,-2.0736745E-1,-9.3906295E-1,-1.7712579E0,-1.5764283E0,-2.219046E0,-2.4716659E-1,2.2063425E-1,-6.5603596E-1,-1.3371036E0,6.593029E-2,-2.338955E-1,-2.7067503E-1,-6.7848885E-1,-2.2355573E-1,-7.2510934E-1,-7.446325E-1,-3.614593E-1,-1.7634975E0,-1.236633E0,-1.9145532E0,-2.3989582E0,-2.2189338E0,-2.3377883E0,-2.3948279E-1,-2.0269048E0,-1.2965099E0,-2.263375E0,-5.7770187E-1,4.4267383E-1,-1.1621178E0,-2.2337039E0,-1.4119008E0,-8.0543524E-1,-1.6829617E0,-1.3648994E0,-2.0914156E0,-2.366021E-1,-2.1894255E0,-1.6204305E0,-2.228303E0,-2.3934615E0,-2.6716134E-1,-2.4540186E-1,7.836784E-2,1.4564375E-2,9.272722E-2,1.0728445E-1,4.2997384E-3,3.2008756E-2,2.9964773E-2,5.3333778E-2,9.559168E-2,1.1105229E-1,1.0704871E-1,7.740476E-2,4.995212E-2,9.072084E-2,7.171992E-2,4.127398E-2,1.12590015E-1,1.0611329E-1,9.605127E-2,8.488887E-2,1.0256543E-1,1.1174084E-1,5.048963E-2,7.4079715E-2,5.673474E-2,3.528919E-2,7.581554E-2,5.6333203E-2,1.0583072E-1,7.153898E-2,3.0511586E-2,4.0817913E-2,8.398646E-2,4.2060208E-2,5.160531E-2,6.910022E-2,5.1155884E-2,4.4076923E-2,5.913592E-2,4.7856256E-2,6.295523E-2,4.3483093E-2,3.8300507E-2,1.878191E-2,4.6429396E-2,5.8381803E-2,-3.5786924E-3,1.730733E-2,5.06576E-2,3.162737E-2,-4.0877406E-2,2.7415615E-3,2.5665224E-2,5.0146975E-2,4.027194E-2,4.6792835E-2,5.862164E-2,4.7219917E-2,3.768698E-2,2.7727982E-2,3.5071127E-2,4.9114935E-2,1.228085E-2,2.6303593E-2,3.353269E-2,5.019793E-2,2.8200788E-2,1.0327602E-2,1.0509308E-2,-6.114122E-2,2.5191939E-2,5.4286387E-2,-9.568127E-2,1.4074056E-2,3.0685386E-2,-9.359851E-3,-1.035496E-1,-2.0379932E-1,5.6259282E-2,4.1247707E-2,5.8658432E-2,4.4366267E-2,1.3869265E-2,-6.4654574E-2,4.0320843E-2,2.1241216E-2,2.5632143E-2,-1.6738582E-2,5.4875653E-2,2.6572762E-2,-1.1345053E-2,-7.602241E-2,2.421442E-2,1.7821969E-3,-2.8909373E-1,-1.3670573E-2,-2.0048872E-2,2.609756E-2,2.9272528E-3,-5.6040496E-2,-1.1033493E-1,-3.2697216E-1,-1.0463422E-1,-5.7026483E-2,-9.835427E-2,-2.4576657E-1,-3.6557864E-2,-2.5155589E-3,-4.1919235E-2,-1.3180032E-1,3.8969986E-2,6.539629E-2,-9.881749E-2,1.123033E-2,3.3439744E-2,-1.2222779E-2,-2.7422088E-1,-4.7977868E-1,-1.4105554E-3,-2.598168E-2,-3.323491E-2,-5.7560373E-2,-1.0087874E-2,-4.6430882E-2,-1.2964384E-1,-6.886307E-2,-9.92498E-2,-4.548237E-2,-2.3392312E-1,-1.3652723E-1,-2.1771322E-1,-1.16564766E-1,-3.220803E-2,-1.0763567E-1,-1.0068577E-1,-3.6890516E-1,-2.1092327E-1,-1.8806252E-1,-6.0203325E-2,-1.8939482E-1,-6.154033E-2,-1.3553403E-1,-1.1699889E-1,-2.0074968E-1,-2.233027E-1,-9.099913E-2,-1.5572129E-1,-2.7787825E-1,-4.17793E-3,-4.176819E-2,7.621785E-3,5.1235188E-2,-2.968659E-2,-1.0104295E-1,-4.3171403E-1,-6.195618E-2,3.293584E-2,-1.7641082E-2,-1.6926982E-3,-7.312291E-2,1.6467435E-2,-6.102205E-2,-2.615873E-2,-1.4278723E-1,-4.0481366E-2,1.1630639E-3,-1.0071541E-1,-4.9771167E-2,-4.2504273E-2,-9.186302E-2,-1.5611407E-1,-2.1323271E-1,-8.5975245E-2,-1.38845E-1,-1.5040937E-1,-2.0197931E-1,-1.9827527E-1,-2.9150236E-1,-1.9499217E-1,-2.2964714E-1,-2.2930174E-1,-2.5182965E-1,-1.8921362E-1,-2.2633241E-1,-1.1072322E-1,-1.6704392E-1,-2.4612084E-1,-1.9274169E-1,-3.3111732E-2,-8.827947E-2,1.1646378E-2,8.7573916E-2,-1.6488506E-1,-8.300689E-2,-8.784418E-2,-2.9202253E-1,-1.1076572E-1,-2.1673723E-1,-1.0174604E-1,-2.7784416E-2,-1.2181234E-1,-1.7288135E-1,-1.2876457E-1,-1.7960916E-1,-1.8363164E-1,-2.3373728E-1,-1.8888636E-1,-2.2737704E-1,-1.8274502E-1,-7.655372E-2,-2.0519805E-1,-2.271999E-1,-2.514899E-1,-2.3169425E-1],"categories":[],"categories_nodes":[],"categories_segments":[],"categories_sizes":[],"default_left":[0,0,0,0,0,0,0,0,0,0,0,0,0,0,0,0,0,0,0,0,0,0,0,0,0,0,0,0,0,0,0,0,0,0,0,0,0,0,0,0,0,0,0,0,0,0,0,0,0,0,0,0,0,0,0,0,0,0,0,0,0,0,0,0,0,0,0,0,0,0,0,0,0,0,0,0,0,0,0,0,0,0,0,0,0,0,0,0,0,0,0,0,0,0,0,0,0,0,0,0,0,0,0,0,0,0,0,0,0,0,0,0,0,0,0,0,0,0,0,0,0,0,0,0,0,0,0,0,0,0,0,0,0,0,0,0,0,0,0,0,0,0,0,0,0,0,0,0,0,0,0,0,0,0,0,0,0,0,0,0,0,0,0,0,0,0,0,0,0,0,0,0,0,0,0,0,0,0,0,0,0,0,0,0,0,0,0,0,0,0,0,0,0,0,0,0,0,0,0,0,0,0,0,0,0,0,0,0,0,0,0,0,0,0,0,0,0,0,0,0,0,0,0,0,0,0,0,0,0,0,0,0,0,0,0,0,0,0,0,0,0,0,0,0,0,0,0,0,0,0,0,0,0,0,0,0,0,0,0,0,0,0,0,0,0,0,0,0,0,0,0,0,0,0,0,0,0,0,0,0,0,0,0,0,0,0,0,0,0,0,0,0,0,0,0,0,0,0,0,0,0,0,0,0,0,0,0,0,0,0,0,0,0,0,0,0,0,0,0,0,0,0,0,0,0,0,0,0,0,0,0,0,0,0,0,0,0,0,0,0,0,0,0,0,0,0,0,0,0,0,0,0,0,0,0,0,0,0,0,0,0,0,0,0,0,0,0,0,0,0,0,0,0,0,0,0,0,0,0,0,0,0,0,0,0,0,0,0,0,0,0,0,0,0,0,0,0,0,0,0,0,0,0,0,0,0,0,0,0,0,0,0,0,0,0,0,0,0,0,0,0,0,0,0,0,0,0,0,0,0,0,0,0,0,0,0,0,0,0,0,0,0,0,0,0,0,0,0,0,0,0,0,0,0,0,0,0,0,0],"id":4,"left_children":[1,3,5,7,9,11,13,15,17,19,21,23,